{"learner":{"attributes":{"best_iteration":"299","best_ntree_limit":"300","scikit_learn":"{\"use_label_encoder\": null, \"n_estimators\": 300, \"objective\": \"binary:logistic\", \"max_depth\": null, \"max_leaves\": null, \"max_bin\": null, \"grow_policy\": null, \"learning_rate\": 0.1, \"verbosity\": null, \"booster\": null, \"tree_method\": null, \"gamma\": null, \"min_child_weight\": null, \"max_delta_step\": null, \"subsample\": 0.8, \"sampling_method\": null, \"colsample_bytree\": 1, \"colsample_bylevel\": null, \"colsample_bynode\": null, \"reg_alpha\": null, \"reg_lambda\": null, \"scale_pos_weight\": 1, \"base_score\": null, \"missing\": NaN, \"num_parallel_tree\": null, \"random_state\": 21, \"n_jobs\": null, \"monotone_constraints\": null, \"interaction_constraints\": null, \"importance_type\": null, \"gpu_id\": null, \"validate_parameters\": null, \"predictor\": null, \"enable_categorical\": false, \"feature_types\": null, \"max_cat_to_onehot\": null, \"max_cat_threshold\": null, \"eval_metric\": null, \"early_stopping_rounds\": null, \"callbacks\": null, \"classes_\": [0, 1], \"n_classes_\": 2, \"_estimator_type\": \"classifier\"}"},"feature_names":["D_132","P_3","D_44","D_64_O","D_52","P_2","D_56","B_23","D_88","R_1","D_76","D_110","D_77","D_62","B_11","B_2","D_51","D_108","S_3","D_50","R_3","B_3","D_49","D_66","B_38","D_75","D_53","B_1","B_4","D_111","D_134","D_41","B_17","D_46","B_5","D_43","S_23","B_9","D_48","R_27","B_18","D_112","D_47","D_45","D_42","S_24"],"feature_types":["float","float","float","int","float","float","float","float","float","float","float","float","float","float","float","float","float","float","float","float","float","float","float","float","float","float","float","float","float","float","float","float","float","float","float","float","float","float","float","float","float","float","float","float","float","float"],"gradient_booster":{"model":{"gbtree_model_param":{"num_parallel_tree":"1","num_trees":"300","size_leaf_vector":"0"},"tree_info":[0,0,0,0,0,0,0,0,0,0,0,0,0,0,0,0,0,0,0,0,0,0,0,0,0,0,0,0,0,0,0,0,0,0,0,0,0,0,0,0,0,0,0,0,0,0,0,0,0,0,0,0,0,0,0,0,0,0,0,0,0,0,0,0,0,0,0,0,0,0,0,0,0,0,0,0,0,0,0,0,0,0,0,0,0,0,0,0,0,0,0,0,0,0,0,0,0,0,0,0,0,0,0,0,0,0,0,0,0,0,0,0,0,0,0,0,0,0,0,0,0,0,0,0,0,0,0,0,0,0,0,0,0,0,0,0,0,0,0,0,0,0,0,0,0,0,0,0,0,0,0,0,0,0,0,0,0,0,0,0,0,0,0,0,0,0,0,0,0,0,0,0,0,0,0,0,0,0,0,0,0,0,0,0,0,0,0,0,0,0,0,0,0,0,0,0,0,0,0,0,0,0,0,0,0,0,0,0,0,0,0,0,0,0,0,0,0,0,0,0,0,0,0,0,0,0,0,0,0,0,0,0,0,0,0,0,0,0,0,0,0,0,0,0,0,0,0,0,0,0,0,0,0,0,0,0,0,0,0,0,0,0,0,0,0,0,0,0,0,0,0,0,0,0,0,0,0,0,0,0,0,0,0,0,0,0,0,0,0,0,0,0,0,0,0,0,0,0,0,0],"trees":[{"base_weights":[-9.679453E-1,3.477377E-1,-1.7199254E0,-2.9647583E-1,7.7879274E-1,-1.8497845E0,-9.483476E-1,-5.763791E-1,6.411437E-1,1.1019225E0,3.992218E-1,-1.8796878E0,-6.5692544E-1,-5.2563596E-1,-1.4911447E0,-1.161261E0,-4.220577E-2,4.5379204E-1,1.2828771E0,8.9375633E-1,1.4289266E0,2.3210831E-2,6.702936E-1,-1.6228589E0,-1.9456078E0,-8.9471626E-1,1.7438692E-1,-6.008435E-1,9.736842E-1,-1.5286126E0,6.9822484E-1,-1.5152572E0,-7.7492875E-1,3.9304972E-1,-4.156278E-1,7.877993E-1,1.4925373E-1,2.1782178E-1,1.3408834E0,6.240441E-1,1.1142594E0,1.2790835E0,1.6564252E0,-4.6962026E-1,2.3997773E-1,5.553879E-1,1.4965675E0,-1.7585648E0,-1.2816477E0,-1.9579371E0,-1.72903E0,-1.0349712E0,1.7333333E-1,-1.045045E-1,1.0163934E0,-6.785871E-1,6.9186044E-1,6.7005074E-1,1.5045872E0,-1.6055549E0,-9.5047784E-1,-1.7142858E-1,1.2621359E0,-1.6482759E0,-7.9926336E-1,-1.085744E0,-2.9376256E-1,1.1704312E-1,7.7873564E-1,-7.6139784E-1,1.6166281E-2,3.6998254E-1,1.0372312E0,-6.0085837E-2,8.2680154E-1,-6.666667E-1,8.666667E-1,5.4304636E-1,1.4119827E0,2.4024768E-1,8.8444537E-1,7.4597275E-1,1.2353905E0,1.4205654E0,1.0763766E0,1.8237705E0,1.5236957E0,-1.0878661E-1,-8.7323946E-1,8.427171E-2,7.491082E-1,8.287725E-2,7.6210046E-1,1.605938E0,8.740741E-1,-1.7891747E0,-1.0614251E0,-1.6008624E0,-1.0438356E0,-1.959119E0,-6.3829786E-1,-1.8444066E0,-1.534182E0,-1.2618583E0,-5.469613E-1,-8.333333E-1,6.3461536E-1,-4.5303866E-1,5.3807104E-1,1.5087719E0,1.9178082E-1,-7.9191536E-1,-9.656652E-2,4.3171805E-1,1.1764706E0,1.2470589E0,2.2807017E-1,8.695652E-2,1.638191E0,-1.7077065E0,-1.2792618E0,-1.059044E0,4.090909E-1,-8E-1,5.882353E-1,1.4166666E0,-5.4545456E-1],"categories":[],"categories_nodes":[],"categories_segments":[],"categories_sizes":[],"default_left":[0,1,1,1,0,1,1,1,1,1,1,1,1,1,1,1,0,1,1,1,1,1,1,1,1,1,1,1,0,1,1,1,1,0,1,1,1,0,1,1,1,0,0,1,1,1,0,1,1,1,1,1,1,1,0,1,0,1,1,1,1,1,1,0,0,0,0,0,0,0,0,0,0,0,0,0,0,0,0,0,0,0,0,0,0,0,0,0,0,0,0,0,0,0,0,0,0,0,0,0,0,0,0,0,0,0,0,0,0,0,0,0,0,0,0,0,0,0,0,0,0,0,0,0,0,0,0],"id":0,"left_children":[1,3,5,7,9,11,13,15,17,19,21,23,25,27,29,31,33,35,37,39,41,43,45,47,49,51,53,55,57,59,61,63,65,67,69,71,73,75,77,79,81,83,85,87,89,91,93,95,97,99,101,103,105,107,109,111,113,115,117,119,121,123,125,-1,-1,-1,-1,-1,-1,-1,-1,-1,-1,-1,-1,-1,-1,-1,-1,-1,-1,-1,-1,-1,-1,-1,-1,-1,-1,-1,-1,-1,-1,-1,-1,-1,-1,-1,-1,-1,-1,-1,-1,-1,-1,-1,-1,-1,-1,-1,-1,-1,-1,-1,-1,-1,-1,-1,-1,-1,-1,-1,-1,-1,-1,-1,-1],"loss_changes":[6.0889484E4,6.215869E3,3.922039E3,2.3554653E3,1.6443667E3,1.1943828E3,1.2940981E3,2.1592214E3,2.4751202E2,4.917793E2,6.286894E2,5.504297E2,1.6249945E2,3.5851373E2,2.0370508E2,4.4999707E2,5.8743933E2,1.6250406E2,2.8481873E1,2.6267798E2,9.3867676E1,2.7626688E2,3.3947046E2,3.0726758E2,6.6078125E1,9.586371E1,4.3197227E1,3.0430457E2,2.3494217E1,1.0652295E2,2.093607E1,1.6254395E2,2.3590137E2,1.77577E2,2.9044092E2,7.905551E1,1.18838646E2,1.5068646E1,2.4277649E1,1.9909497E2,1.0771753E2,4.7283203E1,2.198169E1,1.1496013E2,1.423142E2,3.0743866E2,2.8348328E1,1.0009766E2,1.4300049E2,3.7140625E1,2.8863281E1,6.18407E1,3.535564E1,3.1318153E1,1.8286129E1,1.8805627E2,2.1175728E1,2.4835678E1,1.0179886E1,6.921973E1,4.2906067E1,8.826891E0,7.965431E0,0E0,0E0,0E0,0E0,0E0,0E0,0E0,0E0,0E0,0E0,0E0,0E0,0E0,0E0,0E0,0E0,0E0,0E0,0E0,0E0,0E0,0E0,0E0,0E0,0E0,0E0,0E0,0E0,0E0,0E0,0E0,0E0,0E0,0E0,0E0,0E0,0E0,0E0,0E0,0E0,0E0,0E0,0E0,0E0,0E0,0E0,0E0,0E0,0E0,0E0,0E0,0E0,0E0,0E0,0E0,0E0,0E0,0E0,0E0,0E0,0E0,0E0,0E0,0E0],"parents":[2147483647,0,0,1,1,2,2,3,3,4,4,5,5,6,6,7,7,8,8,9,9,10,10,11,11,12,12,13,13,14,14,15,15,16,16,17,17,18,18,19,19,20,20,21,21,22,22,23,23,24,24,25,25,26,26,27,27,28,28,29,29,30,30,31,31,32,32,33,33,34,34,35,35,36,36,37,37,38,38,39,39,40,40,41,41,42,42,43,43,44,44,45,45,46,46,47,47,48,48,49,49,50,50,51,51,52,52,53,53,54,54,55,55,56,56,57,57,58,58,59,59,60,60,61,61,62,62],"right_children":[2,4,6,8,10,12,14,16,18,20,22,24,26,28,30,32,34,36,38,40,42,44,46,48,50,52,54,56,58,60,62,64,66,68,70,72,74,76,78,80,82,84,86,88,90,92,94,96,98,100,102,104,106,108,110,112,114,116,118,120,122,124,126,-1,-1,-1,-1,-1,-1,-1,-1,-1,-1,-1,-1,-1,-1,-1,-1,-1,-1,-1,-1,-1,-1,-1,-1,-1,-1,-1,-1,-1,-1,-1,-1,-1,-1,-1,-1,-1,-1,-1,-1,-1,-1,-1,-1,-1,-1,-1,-1,-1,-1,-1,-1,-1,-1,-1,-1,-1,-1,-1,-1,-1,-1,-1,-1],"split_conditions":[5.721589E-1,2.870809E-1,1.1347993E-1,1.3581067E-1,3.934363E-1,6.908825E-2,7.035788E-1,6.749988E-2,1.6572148E-2,5.0005275E-1,4.6727678E-1,7.1251166E-1,8.7069607E-1,4.9650796E-2,5.328136E-2,1.67386E-1,4.3882462E-1,5.5999327E-1,9.92893E-2,2.090691E-1,5.229261E-1,1.6123706E-1,4.6028048E-2,9.4606355E-3,5.0062723E-2,3.3200282E-1,5.043292E-1,1.23639815E-1,1.4936385E-1,3.422981E-1,1.9494095E-1,6.377134E-2,1.8887263E-2,2.5948298E-1,7.508178E-1,8.686469E-2,2.9869717E-1,4.5089483E-2,1.6231415E-1,1.349486E-1,5.6404836E-2,5.253927E-1,1.2492762E-1,7.407617E-2,1.6271129E-1,1.6268715E-1,6.8515587E-1,1.2986875E-1,1.517537E-1,1.4512414E-1,1.645213E-1,4.554342E-1,1.7385444E-1,3.0843645E-1,6.2820506E-1,3.6859772E-1,4.5055085E-1,3.8569117E-1,1.509696E-1,3.432114E-1,5.01539E-1,6.2493556E-3,3.034321E-1,-1.6482759E-1,-7.9926334E-2,-1.08574405E-1,-2.9376257E-2,1.1704313E-2,7.7873565E-2,-7.6139785E-2,1.6166281E-3,3.6998253E-2,1.0372312E-1,-6.0085836E-3,8.268016E-2,-6.666667E-2,8.6666666E-2,5.4304637E-2,1.4119826E-1,2.4024768E-2,8.844454E-2,7.459728E-2,1.2353905E-1,1.4205654E-1,1.0763766E-1,1.8237706E-1,1.5236957E-1,-1.0878662E-2,-8.732395E-2,8.427171E-3,7.491082E-2,8.287725E-3,7.6210044E-2,1.605938E-1,8.740741E-2,-1.7891747E-1,-1.0614251E-1,-1.6008624E-1,-1.04383565E-1,-1.959119E-1,-6.382979E-2,-1.8444066E-1,-1.534182E-1,-1.2618583E-1,-5.469613E-2,-8.3333336E-2,6.3461535E-2,-4.5303866E-2,5.3807106E-2,1.508772E-1,1.9178083E-2,-7.9191536E-2,-9.656652E-3,4.3171804E-2,1.1764707E-1,1.2470589E-1,2.2807017E-2,8.695653E-3,1.638191E-1,-1.7077065E-1,-1.2792619E-1,-1.059044E-1,4.0909093E-2,-8.0000006E-2,5.8823533E-2,1.4166667E-1,-5.454546E-2],"split_indices":[5,37,27,44,5,44,5,2,26,9,33,5,32,26,26,18,5,1,18,18,9,18,26,32,21,35,33,44,26,18,28,21,32,2,32,35,35,26,38,2,35,1,5,15,44,18,1,22,18,26,18,33,18,18,1,18,18,42,27,21,9,9,34,0,0,0,0,0,0,0,0,0,0,0,0,0,0,0,0,0,0,0,0,0,0,0,0,0,0,0,0,0,0,0,0,0,0,0,0,0,0,0,0,0,0,0,0,0,0,0,0,0,0,0,0,0,0,0,0,0,0,0,0,0,0,0,0],"split_type":[0,0,0,0,0,0,0,0,0,0,0,0,0,0,0,0,0,0,0,0,0,0,0,0,0,0,0,0,0,0,0,0,0,0,0,0,0,0,0,0,0,0,0,0,0,0,0,0,0,0,0,0,0,0,0,0,0,0,0,0,0,0,0,0,0,0,0,0,0,0,0,0,0,0,0,0,0,0,0,0,0,0,0,0,0,0,0,0,0,0,0,0,0,0,0,0,0,0,0,0,0,0,0,0,0,0,0,0,0,0,0,0,0,0,0,0,0,0,0,0,0,0,0,0,0,0,0],"sum_hessian":[6.154225E4,2.238225E4,3.916E4,8.97275E3,1.34095E4,3.35175E4,5.6425E3,6.91025E3,2.0625E3,7.24225E3,6.16725E3,3.269725E4,8.2025E2,3.17325E3,2.46925E3,3.298E3,3.61225E3,1.59775E3,4.6475E2,4.4275E3,2.81475E3,2.584E3,3.58325E3,6.6835E3,2.601375E4,6.3775E2,1.825E2,3.02225E3,1.51E2,2.428E3,4.125E1,1.7195E3,1.5785E3,1.668E3,1.94425E3,7.6125E2,8.365E2,2.425E1,4.405E2,1.99325E3,2.43425E3,1.701E3,1.11375E3,7.89E2,1.795E3,3.14725E3,4.36E2,4.77875E3,1.90475E3,2.4605E4,1.40875E3,5.6375E2,7.4E1,1.3775E2,4.475E1,2.85125E3,1.71E2,9.75E1,5.35E1,2.14125E3,2.8675E2,1.65E1,2.475E1,1.449E3,2.705E2,9.5825E2,6.2025E2,9.73E2,6.95E2,1.07925E3,8.65E2,2.855E2,4.7575E2,6.3975E2,1.9675E2,1.025E1,1.4E1,3.675E1,4.0375E2,8.065E2,1.18675E3,6.0425E2,1.83E3,9.9825E2,7.0275E2,4.87E2,6.2675E2,4.1725E2,3.7175E2,1.3755E3,4.195E2,9.5825E2,2.189E3,3.695E2,6.65E1,4.57625E3,2.025E2,8.1075E2,1.094E3,2.45825E4,2.25E1,8.795E2,5.2925E2,3.8375E2,1.8E2,2.3E1,5.1E1,8.95E1,4.825E1,2.75E1,1.725E1,2.38625E3,4.65E2,1.125E2,5.85E1,4.15E1,5.6E1,4.75E0,4.875E1,1.6275E3,5.1375E2,2.6575E2,2.1E1,9E0,7.5E0,2.3E1,1.75E0],"tree_param":{"num_deleted":"0","num_feature":"46","num_nodes":"127","size_leaf_vector":"0"}},{"base_weights":[-8.76634E-1,3.3287323E-1,-1.5508809E0,-2.2921802E-1,7.34144E-1,-1.6710908E0,-8.242523E-1,-1.0309844E0,4.7658883E-2,9.954679E-1,3.6231178E-1,-1.6999667E0,-4.2476982E-1,-4.4766393E-1,-1.3419719E0,-1.3115462E0,4.3914816E-3,-4.6273175E-1,3.625623E-1,8.08005E-1,1.2950191E0,3.419506E-2,5.9867936E-1,-1.4684521E0,-1.7704945E0,-9.8677605E-1,-9.1975234E-2,-5.1780033E-1,9.0895504E-1,-1.3708602E0,7.378213E-1,-7.4678385E-1,-1.4937357E0,-2.4772961E-1,6.7801183E-1,-3.93549E-2,-7.813471E-1,1.4763114E-1,8.2036895E-1,4.9717933E-1,9.9676365E-1,1.1896539E0,1.5587926E0,-2.8468117E-1,3.0677283E-1,3.290575E-1,8.8398504E-1,-1.532754E0,-7.7281743E-1,-1.7737335E0,-9.894082E-1,-6.2760025E-1,-1.3583347E0,-2.0554368E-1,1.2636093E0,-5.8892053E-1,6.836935E-1,5.1270044E-1,1.3555171E0,-1.1057359E0,-1.5299431E0,-4.533426E-2,1.2179912E0,-9.363126E-1,-1.5473564E-1,-6.22724E-1,-1.5401416E0,-6.054982E-1,2.859351E-1,9.5320094E-1,-1.2061202E-1,-3.644571E-1,4.471703E-1,-1.0382875E0,-3.1608152E-1,-1.847319E-2,7.702152E-1,1.0935997E0,5.197626E-1,3.1010956E-1,9.4693565E-1,4.8271587E-1,1.0702037E0,9.099967E-1,1.3152428E0,1.5994258E0,1.1672558E0,-6.696814E-1,3.6786307E-2,4.2574516E-1,-2.82962E-1,8.055301E-1,1.9543248E-1,7.9835993E-1,1.560711E0,-1.619287E0,-1.1983403E0,-4.8473793E-1,-1.3119735E0,-1.7866553E0,-1.622447E0,-1.3312799E0,7.849933E-2,-7.8791773E-1,4.4513318E-1,-1.915804E-1,-1.4349931E0,-5.039885E-1,2.7862686E-1,1.4039799E0,-3.7543377E-1,-7.0933217E-1,-4.6466116E-2,1.9833703E-1,9.2891544E-1,7.0565957E-1,-6.813907E-1,1.4748313E0,5.3025293E-1,-1.156523E0,1.9939601E-1,-1.6122826E0,-1.1755327E0,-7.7577394E-1,8.612237E-1,1.3665876E0,-2.371736E-1],"categories":[],"categories_nodes":[],"categories_segments":[],"categories_sizes":[],"default_left":[0,1,1,1,0,1,1,1,1,1,1,1,1,1,1,1,1,0,1,1,1,1,1,1,1,0,1,1,0,0,1,1,0,0,1,1,1,1,0,1,0,0,0,1,1,1,1,1,0,1,1,1,0,0,1,1,1,1,1,1,1,0,1,0,0,0,0,0,0,0,0,0,0,0,0,0,0,0,0,0,0,0,0,0,0,0,0,0,0,0,0,0,0,0,0,0,0,0,0,0,0,0,0,0,0,0,0,0,0,0,0,0,0,0,0,0,0,0,0,0,0,0,0,0,0,0,0],"id":1,"left_children":[1,3,5,7,9,11,13,15,17,19,21,23,25,27,29,31,33,35,37,39,41,43,45,47,49,51,53,55,57,59,61,63,65,67,69,71,73,75,77,79,81,83,85,87,89,91,93,95,97,99,101,103,105,107,109,111,113,115,117,119,121,123,125,-1,-1,-1,-1,-1,-1,-1,-1,-1,-1,-1,-1,-1,-1,-1,-1,-1,-1,-1,-1,-1,-1,-1,-1,-1,-1,-1,-1,-1,-1,-1,-1,-1,-1,-1,-1,-1,-1,-1,-1,-1,-1,-1,-1,-1,-1,-1,-1,-1,-1,-1,-1,-1,-1,-1,-1,-1,-1,-1,-1,-1,-1,-1,-1],"loss_changes":[4.998626E4,4.948674E3,3.4362344E3,2.0288923E3,1.2435278E3,1.2145312E3,1.0889797E3,6.814929E2,1.0921741E3,4.2108203E2,4.0987115E2,5.3628125E2,1.4317262E2,3.0844043E2,1.4237207E2,1.888103E2,8.5284355E1,3.4973804E2,4.1338165E2,2.7093652E2,7.8518555E1,1.9253358E2,2.3602124E2,3.4378516E2,6.2234375E1,3.7152893E1,7.449514E1,2.6344135E2,2.7524338E1,9.6197266E1,1.2420708E1,5.059886E1,5.541162E1,6.994114E1,3.0171047E1,1.7643788E2,1.7653308E2,2.9588184E2,1.096889E2,1.4694165E2,1.0810889E2,7.152881E1,1.1214111E1,1.2637748E2,8.390731E1,1.00502884E2,8.520715E1,2.0231836E2,1.0103287E2,4.6328125E1,3.906298E1,2.5573391E1,1.216806E1,6.455551E1,9.135284E0,1.8983069E2,2.0345734E1,2.032032E1,6.5407715E0,5.8161377E1,4.03584E1,9.582681E0,4.73967E0,0E0,0E0,0E0,0E0,0E0,0E0,0E0,0E0,0E0,0E0,0E0,0E0,0E0,0E0,0E0,0E0,0E0,0E0,0E0,0E0,0E0,0E0,0E0,0E0,0E0,0E0,0E0,0E0,0E0,0E0,0E0,0E0,0E0,0E0,0E0,0E0,0E0,0E0,0E0,0E0,0E0,0E0,0E0,0E0,0E0,0E0,0E0,0E0,0E0,0E0,0E0,0E0,0E0,0E0,0E0,0E0,0E0,0E0,0E0,0E0,0E0,0E0,0E0,0E0],"parents":[2147483647,0,0,1,1,2,2,3,3,4,4,5,5,6,6,7,7,8,8,9,9,10,10,11,11,12,12,13,13,14,14,15,15,16,16,17,17,18,18,19,19,20,20,21,21,22,22,23,23,24,24,25,25,26,26,27,27,28,28,29,29,30,30,31,31,32,32,33,33,34,34,35,35,36,36,37,37,38,38,39,39,40,40,41,41,42,42,43,43,44,44,45,45,46,46,47,47,48,48,49,49,50,50,51,51,52,52,53,53,54,54,55,55,56,56,57,57,58,58,59,59,60,60,61,61,62,62],"right_children":[2,4,6,8,10,12,14,16,18,20,22,24,26,28,30,32,34,36,38,40,42,44,46,48,50,52,54,56,58,60,62,64,66,68,70,72,74,76,78,80,82,84,86,88,90,92,94,96,98,100,102,104,106,108,110,112,114,116,118,120,122,124,126,-1,-1,-1,-1,-1,-1,-1,-1,-1,-1,-1,-1,-1,-1,-1,-1,-1,-1,-1,-1,-1,-1,-1,-1,-1,-1,-1,-1,-1,-1,-1,-1,-1,-1,-1,-1,-1,-1,-1,-1,-1,-1,-1,-1,-1,-1,-1,-1,-1,-1,-1,-1,-1,-1,-1,-1,-1,-1,-1,-1,-1,-1,-1,-1],"split_conditions":[5.660015E-1,3.2541507E-1,1.21910736E-1,2.4815059E-1,4.0478343E-1,8.378456E-2,7.0180357E-1,8.490613E-2,1.6988641E-1,5.0005275E-1,1.7468429E-1,7.2237504E-1,1.745776E-1,4.9650796E-2,6.774858E-2,5.880611E-1,4.7371975E-1,4.4177496E-1,1.3916332E-1,4.5830047E-1,1.000299E0,7.596117E-2,4.8347282E-1,4.2429153E-2,5.6039702E-2,6.3570604E-2,1.8825728E-2,1.2376433E-1,1.1568631E-1,7.6748466E-1,4.3987173E-1,1.6431735E-1,4.061483E-1,2.4842173E-1,7.395513E-2,2.5380987E-1,8.469871E-1,5.0364047E-2,5.96789E-1,1.6706133E-1,1.4951317E-1,1.7775959E-1,6.280539E-1,3.0798554E-1,3.339377E-1,2.2509301E-2,5.760892E-2,5.488665E-1,1.0092956E0,3.010814E-2,7.587201E-1,4.585252E-3,5.117858E-1,2.0177248E-1,1.4098868E-1,6.5149045E-1,3.0293413E-3,5.4153334E-3,7.6133025E-1,7.065427E-2,3.5535115E-1,1.8095356E-1,5.4352474E-1,-9.363126E-2,-1.5473564E-2,-6.22724E-2,-1.5401416E-1,-6.054982E-2,2.859351E-2,9.53201E-2,-1.2061202E-2,-3.644571E-2,4.471703E-2,-1.0382875E-1,-3.1608153E-2,-1.847319E-3,7.7021524E-2,1.0935997E-1,5.197626E-2,3.1010956E-2,9.4693564E-2,4.827159E-2,1.0702037E-1,9.099967E-2,1.3152428E-1,1.5994258E-1,1.1672558E-1,-6.6968136E-2,3.6786308E-3,4.2574517E-2,-2.82962E-2,8.055301E-2,1.954325E-2,7.9835996E-2,1.5607111E-1,-1.619287E-1,-1.1983403E-1,-4.8473794E-2,-1.3119735E-1,-1.7866553E-1,-1.622447E-1,-1.3312799E-1,7.849934E-3,-7.8791775E-2,4.451332E-2,-1.9158041E-2,-1.4349931E-1,-5.0398853E-2,2.7862687E-2,1.40398E-1,-3.754338E-2,-7.0933215E-2,-4.646612E-3,1.9833704E-2,9.2891544E-2,7.056596E-2,-6.813907E-2,1.4748314E-1,5.3025294E-2,-1.156523E-1,1.9939601E-2,-1.6122827E-1,-1.1755327E-1,-7.75774E-2,8.612237E-2,1.3665877E-1,-2.371736E-2],"split_indices":[5,37,27,38,5,44,5,44,18,9,18,5,18,26,26,40,33,5,44,33,9,35,33,22,26,13,26,44,26,5,33,7,0,44,13,2,32,26,1,31,18,18,1,28,16,39,26,32,32,21,32,26,1,44,6,27,32,10,1,44,21,18,37,0,0,0,0,0,0,0,0,0,0,0,0,0,0,0,0,0,0,0,0,0,0,0,0,0,0,0,0,0,0,0,0,0,0,0,0,0,0,0,0,0,0,0,0,0,0,0,0,0,0,0,0,0,0,0,0,0,0,0,0,0,0,0,0],"split_type":[0,0,0,0,0,0,0,0,0,0,0,0,0,0,0,0,0,0,0,0,0,0,0,0,0,0,0,0,0,0,0,0,0,0,0,0,0,0,0,0,0,0,0,0,0,0,0,0,0,0,0,0,0,0,0,0,0,0,0,0,0,0,0,0,0,0,0,0,0,0,0,0,0,0,0,0,0,0,0,0,0,0,0,0,0,0,0,0,0,0,0,0,0,0,0,0,0,0,0,0,0,0,0,0,0,0,0,0,0,0,0,0,0,0,0,0,0,0,0,0,0,0,0,0,0,0,0],"sum_hessian":[6.1293098E4,2.1938652E4,3.9354445E4,9.138321E3,1.2800331E4,3.3766914E4,5.5875337E3,2.3450164E3,6.793305E3,7.516237E3,5.2840938E3,3.3001934E4,7.649806E2,3.2357324E3,2.3518015E3,1.844842E3,5.0017432E2,2.5919092E3,4.201396E3,4.6253394E3,2.8908975E3,2.2130981E3,3.0709956E3,7.7111455E3,2.5290787E4,2.837809E2,4.8119965E2,3.0772583E3,1.584741E2,2.3199187E3,3.1882761E1,4.5122028E2,1.3936217E3,3.6441437E2,1.3575995E2,1.1134619E3,1.4784473E3,2.8600037E3,1.3413925E3,1.748972E3,2.8763674E3,2.06967E3,8.212275E2,1.01990894E3,1.1931892E3,1.5800024E3,1.4909932E3,7.057568E3,6.535776E2,2.5185078E4,1.0571E2,1.4566225E2,1.3811868E2,4.4478476E2,3.6414894E1,2.9057666E3,1.7149167E2,8.510485E1,7.336925E1,8.729795E2,1.4469392E3,1.246233E1,1.942043E1,3.41361E2,1.0985929E2,7.1223114E1,1.3223986E3,2.1807944E2,1.4633495E2,1.0082441E2,3.4935535E1,6.6760846E2,4.458534E2,9.5166425E2,5.267831E2,2.258429E3,6.015745E2,7.013108E2,6.4008167E2,1.2363989E3,5.125731E2,3.6051242E2,2.515855E3,6.4396204E2,1.4257079E3,7.4121967E2,8.0007805E1,4.6360132E2,5.563076E2,9.931171E2,2.0007207E2,3.4495462E2,1.2350479E3,1.325464E3,1.6552922E2,5.6037065E3,1.4538611E3,4.272111E2,2.2636653E2,2.3193264E4,1.9918145E3,7.988849E1,2.582151E1,1.2695468E2,1.8707573E1,8.7309675E0,1.2938771E2,2.7514392E2,1.6964084E2,3.3674374E1,2.74052E0,2.3776736E3,5.2809296E2,5.8169094E1,1.1332258E2,7.3617645E1,1.1487203E1,6.3413956E1,9.955295E0,8.4039087E2,3.2588596E1,1.1712706E3,2.7566858E2,6.981445E0,5.4808855E0,1.7676262E1,1.7441674E0],"tree_param":{"num_deleted":"0","num_feature":"46","num_nodes":"127","size_leaf_vector":"0"}},{"base_weights":[-8.0235624E-1,2.640738E-1,-1.4475181E0,-2.8531417E-1,6.1654824E-1,-1.541293E0,-7.405561E-1,-5.54915E-1,3.9915293E-1,8.5422087E-1,2.3885737E-1,-1.5755682E0,-6.701809E-1,-3.859613E-1,-1.1658338E0,-1.0411845E0,-9.212847E-2,8.296323E-1,1.2088623E-1,1.0892053E0,6.1643994E-1,-1.8166384E-1,4.1210935E-1,-1.3662648E0,-1.6345583E0,-8.705405E-1,7.8062527E-3,-6.9652796E-1,-1.3012256E-1,-1.2014371E0,6.404612E-1,-1.23501E0,-5.0324774E-1,2.635554E-1,-4.9034405E-1,6.5176713E-1,1.2380632E0,-9.67897E-2,5.7501274E-1,9.4088936E-1,1.3166378E0,1.0898267E-1,7.294661E-1,-4.4177052E-1,2.8655756E-1,3.1404635E-1,1.0830535E0,-1.4795159E0,-1.0109903E0,-1.637739E0,-8.903877E-1,-9.953147E-1,1.9346681E-1,-3.046972E-1,7.4717194E-1,-8.224016E-1,-8.5479185E-2,-2.2132121E-1,9.273195E-1,-9.388771E-1,-1.3698806E0,-1.3616954E-1,1.0474961E0,-1.3824277E0,-8.093761E-1,-7.344005E-1,2.7951099E-5,-2.1205889E-1,4.9755403E-1,-7.136958E-1,-2.9157827E-2,4.337001E-1,9.9491763E-1,1.2940612E0,1.657733E-1,-3.1054452E-1,4.243069E-1,3.2983473E-1,9.726622E-1,7.571799E-1,1.1590772E0,1.4128162E0,9.9136305E-1,7.121311E-1,-8.377603E-2,5.6405485E-1,9.859796E-1,-5.7821554E-1,4.460521E-1,-2.6577648E-2,6.333381E-1,1.3046865E-1,6.2856543E-1,1.2169884E0,2.2577043E-1,-1.5262145E0,-1.0423341E0,-1.123611E0,-3.5223463E-1,-1.6569157E0,-1.5336196E0,-1.2152858E0,-3.2105934E-2,-7.624164E-1,-1.2900097E0,-5.45616E-1,5.4569596E-1,1.1301366E0,-4.749034E-1,3.0196512E-1,1.0798329E0,-9.877091E-1,-3.791571E-1,-2.9647365E-1,3.515763E-1,-4.4038302E-1,9.299152E-2,6.474806E-1,1.5162817E0,-9.880715E-1,3.1359214E-1,-1.4053087E0,-3.8578913E-1,3.337895E-1,-1.2557349E0,1.1939754E0,-1.0325549E0],"categories":[],"categories_nodes":[],"categories_segments":[],"categories_sizes":[],"default_left":[0,1,1,1,0,1,1,1,0,0,1,1,1,1,1,1,0,1,1,1,1,1,1,1,1,1,0,1,1,0,1,1,0,1,1,1,0,1,0,1,1,1,1,1,1,1,1,1,1,1,1,0,1,1,0,1,1,1,0,1,1,1,1,0,0,0,0,0,0,0,0,0,0,0,0,0,0,0,0,0,0,0,0,0,0,0,0,0,0,0,0,0,0,0,0,0,0,0,0,0,0,0,0,0,0,0,0,0,0,0,0,0,0,0,0,0,0,0,0,0,0,0,0,0,0,0,0],"id":2,"left_children":[1,3,5,7,9,11,13,15,17,19,21,23,25,27,29,31,33,35,37,39,41,43,45,47,49,51,53,55,57,59,61,63,65,67,69,71,73,75,77,79,81,83,85,87,89,91,93,95,97,99,101,103,105,107,109,111,113,115,117,119,121,123,125,-1,-1,-1,-1,-1,-1,-1,-1,-1,-1,-1,-1,-1,-1,-1,-1,-1,-1,-1,-1,-1,-1,-1,-1,-1,-1,-1,-1,-1,-1,-1,-1,-1,-1,-1,-1,-1,-1,-1,-1,-1,-1,-1,-1,-1,-1,-1,-1,-1,-1,-1,-1,-1,-1,-1,-1,-1,-1,-1,-1,-1,-1,-1,-1],"loss_changes":[4.152824E4,4.406028E3,2.4920469E3,1.6412561E3,1.2439883E3,9.9027344E2,6.6400244E2,1.4357355E3,3.0099213E2,4.746338E2,3.9019464E2,3.921797E2,1.7098663E2,1.9093814E2,1.2957617E2,3.2376465E2,4.6331897E2,7.087201E1,1.5108734E2,1.4303809E2,2.4256213E2,1.9049072E2,2.4919165E2,2.813506E2,5.7515625E1,1.2917853E2,6.6796074E1,8.343915E1,1.27454445E2,8.559839E1,1.2587408E1,1.423435E2,9.6062775E1,1.9242044E2,1.5894046E2,5.1161438E1,1.7692535E1,1.1526746E2,4.7958145E1,1.030332E2,5.133789E1,8.978929E1,1.4623828E2,1.22033554E2,6.0699554E1,1.9105368E2,5.520819E1,1.0719141E2,1.2590332E2,4.7E1,3.0140518E1,5.871118E1,2.7062626E1,5.0167282E1,1.2393665E1,6.558215E1,1.730909E1,8.373596E1,1.6316711E1,4.7811707E1,4.11062E1,8.007605E0,9.137926E0,0E0,0E0,0E0,0E0,0E0,0E0,0E0,0E0,0E0,0E0,0E0,0E0,0E0,0E0,0E0,0E0,0E0,0E0,0E0,0E0,0E0,0E0,0E0,0E0,0E0,0E0,0E0,0E0,0E0,0E0,0E0,0E0,0E0,0E0,0E0,0E0,0E0,0E0,0E0,0E0,0E0,0E0,0E0,0E0,0E0,0E0,0E0,0E0,0E0,0E0,0E0,0E0,0E0,0E0,0E0,0E0,0E0,0E0,0E0,0E0,0E0,0E0,0E0,0E0],"parents":[2147483647,0,0,1,1,2,2,3,3,4,4,5,5,6,6,7,7,8,8,9,9,10,10,11,11,12,12,13,13,14,14,15,15,16,16,17,17,18,18,19,19,20,20,21,21,22,22,23,23,24,24,25,25,26,26,27,27,28,28,29,29,30,30,31,31,32,32,33,33,34,34,35,35,36,36,37,37,38,38,39,39,40,40,41,41,42,42,43,43,44,44,45,45,46,46,47,47,48,48,49,49,50,50,51,51,52,52,53,53,54,54,55,55,56,56,57,57,58,58,59,59,60,60,61,61,62,62],"right_children":[2,4,6,8,10,12,14,16,18,20,22,24,26,28,30,32,34,36,38,40,42,44,46,48,50,52,54,56,58,60,62,64,66,68,70,72,74,76,78,80,82,84,86,88,90,92,94,96,98,100,102,104,106,108,110,112,114,116,118,120,122,124,126,-1,-1,-1,-1,-1,-1,-1,-1,-1,-1,-1,-1,-1,-1,-1,-1,-1,-1,-1,-1,-1,-1,-1,-1,-1,-1,-1,-1,-1,-1,-1,-1,-1,-1,-1,-1,-1,-1,-1,-1,-1,-1,-1,-1,-1,-1,-1,-1,-1,-1,-1,-1,-1,-1,-1,-1,-1,-1,-1,-1,-1,-1,-1,-1],"split_conditions":[5.7895565E-1,2.6074207E-1,1.5414846E-1,8.501634E-2,4.2455584E-1,3.8156375E-2,6.9336593E-1,1.2527804E-1,5.599722E-1,5.214944E-1,1.5891972E-1,7.224221E-1,8.7109154E-1,1.6622841E-1,5.2260812E-2,2.938089E-2,4.6712488E-1,1.6347652E-2,2.1133499E-1,4.2043023E-2,9.980216E-3,4.2288122E-1,3.570101E-2,2.4433052E-2,5.6039702E-2,3.1938708E-1,1.7416106E-1,2.0886794E-2,2.7711073E-2,7.600273E-1,1.843439E-1,2.113318E-1,2.612027E-1,1.6382146E-1,9.346946E-2,1.8052761E-1,1.6052326E0,4.83449E-1,3.0206865E-1,1.1759323E-1,1.408377E-1,1.9859787E-2,1.956606E-1,1.2049349E-1,4.6279714E-1,1.4528674E-1,7.6733685E-1,8.256632E-1,5.680278E-2,1.0114118E-2,4.0930218E-1,7.557745E-2,1.7303613E-1,3.765406E-1,9.553376E-1,5.477158E-1,1.0879406E-1,9.949013E-1,1.3152876E-1,7.7371195E-2,2.7969494E-1,1.3004686E-1,3.67484E-1,-1.3824277E-1,-8.093762E-2,-7.344005E-2,2.7951098E-6,-2.1205889E-2,4.9755406E-2,-7.136958E-2,-2.9157826E-3,4.3370012E-2,9.949177E-2,1.2940612E-1,1.6577331E-2,-3.1054452E-2,4.243069E-2,3.2983474E-2,9.726622E-2,7.571799E-2,1.1590772E-1,1.4128162E-1,9.913631E-2,7.121311E-2,-8.377603E-3,5.6405485E-2,9.8597966E-2,-5.7821553E-2,4.460521E-2,-2.6577648E-3,6.333381E-2,1.3046865E-2,6.285655E-2,1.2169885E-1,2.2577044E-2,-1.5262145E-1,-1.0423341E-1,-1.12361096E-1,-3.5223465E-2,-1.6569157E-1,-1.5336196E-1,-1.2152858E-1,-3.2105935E-3,-7.624164E-2,-1.2900098E-1,-5.4561596E-2,5.45696E-2,1.1301366E-1,-4.749034E-2,3.0196512E-2,1.0798329E-1,-9.877091E-2,-3.791571E-2,-2.9647365E-2,3.5157632E-2,-4.4038303E-2,9.2991525E-3,6.474806E-2,1.5162818E-1,-9.880715E-2,3.1359214E-2,-1.4053087E-1,-3.8578913E-2,3.337895E-2,-1.255735E-1,1.1939754E-1,-1.0325549E-1],"split_indices":[5,37,27,44,5,44,5,2,1,1,18,5,32,18,26,21,5,26,35,26,2,21,26,21,26,35,44,22,26,5,28,18,18,18,27,32,18,32,44,44,43,39,35,44,28,35,1,32,22,32,32,13,18,1,45,21,20,32,26,44,31,6,34,0,0,0,0,0,0,0,0,0,0,0,0,0,0,0,0,0,0,0,0,0,0,0,0,0,0,0,0,0,0,0,0,0,0,0,0,0,0,0,0,0,0,0,0,0,0,0,0,0,0,0,0,0,0,0,0,0,0,0,0,0,0,0,0],"split_type":[0,0,0,0,0,0,0,0,0,0,0,0,0,0,0,0,0,0,0,0,0,0,0,0,0,0,0,0,0,0,0,0,0,0,0,0,0,0,0,0,0,0,0,0,0,0,0,0,0,0,0,0,0,0,0,0,0,0,0,0,0,0,0,0,0,0,0,0,0,0,0,0,0,0,0,0,0,0,0,0,0,0,0,0,0,0,0,0,0,0,0,0,0,0,0,0,0,0,0,0,0,0,0,0,0,0,0,0,0,0,0,0,0,0,0,0,0,0,0,0,0,0,0,0,0,0,0],"sum_hessian":[6.0357504E4,2.2751184E4,3.760632E4,8.891909E3,1.3859274E4,3.3201176E4,4.405143E3,6.3793657E3,2.5125427E3,8.505615E3,5.353659E3,3.1943502E4,1.2576744E3,2.4032395E3,2.0019037E3,3.1101494E3,3.2692163E3,9.856925E2,1.5268503E3,4.276163E3,4.229452E3,1.562084E3,3.791575E3,7.028783E3,2.4914719E4,9.7056726E2,2.871072E2,1.0847374E3,1.3185022E3,1.963536E3,3.8367756E1,2.2853967E3,8.247528E2,1.7270043E3,1.5422122E3,6.8847034E2,2.972221E2,1.0326556E3,4.9419476E2,2.5913792E3,1.6847839E3,7.707875E2,3.4586646E3,1.0042557E3,5.578283E2,3.3093582E3,4.8221686E2,5.3274E3,1.7013832E3,2.4807492E4,1.0722701E2,8.687545E2,1.0181275E2,2.0222276E2,8.488444E1,8.9916675E2,1.8557071E2,1.2145449E3,1.03957214E2,7.699521E2,1.1935839E3,1.342261E1,2.4945147E1,1.695808E3,5.895886E2,5.648568E2,2.5989603E2,5.695197E2,1.1574845E3,1.0386487E3,5.0356345E2,4.2234213E2,2.6612823E2,2.8227414E2,1.494798E1,7.325615E2,3.000941E2,3.068378E2,1.8735695E2,1.4092726E3,1.1821064E3,1.2977246E3,3.8705942E2,1.8602248E2,5.8476495E2,2.1046755E3,1.353989E3,8.7077875E2,1.3347691E2,2.9361963E2,2.642087E2,2.09056E3,1.2187981E3,4.1669608E2,6.552077E1,4.811011E3,5.163891E2,1.4523792E3,2.4900398E2,2.0936477E4,3.871014E3,7.7481026E1,2.9745981E1,4.8725922E2,3.814953E2,3.2683628E1,6.912913E1,2.084661E1,1.8137616E2,3.711732E1,4.7767117E1,6.540217E2,2.4514499E2,1.2536886E2,6.020186E1,7.154838E2,4.990611E2,7.189598E1,3.2061234E1,7.41056E2,2.8896029E1,1.1516938E3,4.1890068E1,9.948425E0,3.4741845E0,2.3702015E1,1.2431328E0],"tree_param":{"num_deleted":"0","num_feature":"46","num_nodes":"127","size_leaf_vector":"0"}},{"base_weights":[-7.3879004E-1,2.4260874E-1,-1.3460746E0,-3.5772187E-1,5.125684E-1,-1.4427949E0,-6.975749E-1,-6.738141E-1,4.3791837E-1,7.568353E-1,9.582121E-2,-1.4750851E0,-6.323322E-1,-3.693963E-1,-1.1212215E0,-1.0822047E0,-2.0199154E-1,1.8062289E-1,7.799348E-1,5.886607E-1,1.063119E0,-2.3301302E-1,3.1529573E-1,-1.2614925E0,-1.5281166E0,5.723836E-1,-7.321592E-1,-5.966009E-1,-5.584097E-2,-1.1512163E0,4.8896387E-1,-1.2250623E0,-4.8255667E-1,-8.299591E-1,5.254141E-2,5.5419546E-1,-8.292238E-2,4.702058E-1,1.0813414E0,2.789764E-1,7.817337E-1,1.2747817E0,9.4349825E-1,-3.486318E-1,4.6596858E-1,2.1501559E-1,1.1022813E0,-1.3229444E0,-6.227876E-1,-1.5441366E0,-1.3669875E0,1.1372759E0,1.4538229E-1,-1.0104713E0,-3.6614212E-1,-2.6259777E-1,-7.9793084E-1,-1.23382755E-1,1.1921275E0,-1.2151314E0,-5.7249576E-1,-1.6571128E-1,8.848357E-1,-3.724371E-1,-1.2745553E0,4.061844E-1,-6.5452784E-1,-1.0597975E0,-3.9381886E-1,7.3709E-1,-1.2813014E-1,3.7867564E-1,9.8307693E-1,-3.0289134E-1,4.1390964E-1,1.4986311E-1,7.814747E-1,9.214401E-1,1.3430988E0,5.105268E-1,1.050414E-2,8.722955E-1,3.800253E-1,1.3446814E0,1.1017401E0,1.0591977E0,6.341635E-1,-4.4877672E-1,4.0292084E-1,-3.534129E-2,7.198954E-1,3.758511E-1,-2.9970598E-1,7.244471E-1,1.3642614E0,-1.4280498E0,-1.0826491E0,-1.1207277E0,-3.456641E-1,-1.5451837E0,-1.5595885E-1,-1.4145191E0,-9.530548E-1,1.4109571E0,4.9533203E-1,6.344136E-1,-7.308729E-1,-1.1304022E0,-3.9964852E-1,-6.975928E-1,5.5002667E-2,-4.2320557E-2,-5.532582E-1,-8.8997996E-1,-1.4828874E-1,-2.8872094E-1,3.297829E-1,7.93701E-3,1.3197803E0,-1.3027589E0,-8.6435276E-1,-1.5794887E-1,-9.425341E-1,-7.930038E-1,8.22008E-1,1.0226136E0,-7.3231006E-1],"categories":[],"categories_nodes":[],"categories_segments":[],"categories_sizes":[],"default_left":[0,1,1,1,0,1,1,1,1,1,1,1,0,1,1,1,1,1,1,1,0,1,1,1,1,0,1,1,1,1,1,0,0,1,0,1,1,1,0,1,1,1,1,1,1,1,1,1,1,1,1,0,1,1,0,1,1,1,1,1,0,1,1,0,0,0,0,0,0,0,0,0,0,0,0,0,0,0,0,0,0,0,0,0,0,0,0,0,0,0,0,0,0,0,0,0,0,0,0,0,0,0,0,0,0,0,0,0,0,0,0,0,0,0,0,0,0,0,0,0,0,0,0,0,0,0,0],"id":3,"left_children":[1,3,5,7,9,11,13,15,17,19,21,23,25,27,29,31,33,35,37,39,41,43,45,47,49,51,53,55,57,59,61,63,65,67,69,71,73,75,77,79,81,83,85,87,89,91,93,95,97,99,101,103,105,107,109,111,113,115,117,119,121,123,125,-1,-1,-1,-1,-1,-1,-1,-1,-1,-1,-1,-1,-1,-1,-1,-1,-1,-1,-1,-1,-1,-1,-1,-1,-1,-1,-1,-1,-1,-1,-1,-1,-1,-1,-1,-1,-1,-1,-1,-1,-1,-1,-1,-1,-1,-1,-1,-1,-1,-1,-1,-1,-1,-1,-1,-1,-1,-1,-1,-1,-1,-1,-1,-1],"loss_changes":[3.523065E4,3.6623623E3,2.2894219E3,1.7632938E3,1.586738E3,8.3065625E2,6.587798E2,9.665581E2,1.7530618E2,5.0558105E2,4.158779E2,3.4420312E2,1.4705151E2,1.9040741E2,1.0049634E2,2.2977881E2,3.723241E2,1.12192986E2,7.936963E1,3.7923975E2,8.696338E1,1.8658109E2,2.7248175E2,2.3795898E2,6.1066406E1,2.2475182E1,1.14372925E2,1.0401465E2,9.491116E1,7.445117E1,1.0135274E1,9.1145996E1,7.959686E1,6.692767E1,2.0518788E2,3.5107132E1,7.321386E1,4.2137703E1,1.6880737E1,1.515977E2,1.4186157E2,1.3692627E1,7.909216E1,1.4919588E2,4.1756683E1,2.5396231E2,3.7647827E1,1.3859668E2,7.3554596E1,3.210547E1,4.2371094E1,6.3743668E0,2.3861536E1,4.63808E1,6.817251E1,3.739265E1,5.7665527E1,8.007422E1,8.729355E0,5.5082764E1,3.113655E1,1.0172188E1,6.1353893E0,0E0,0E0,0E0,0E0,0E0,0E0,0E0,0E0,0E0,0E0,0E0,0E0,0E0,0E0,0E0,0E0,0E0,0E0,0E0,0E0,0E0,0E0,0E0,0E0,0E0,0E0,0E0,0E0,0E0,0E0,0E0,0E0,0E0,0E0,0E0,0E0,0E0,0E0,0E0,0E0,0E0,0E0,0E0,0E0,0E0,0E0,0E0,0E0,0E0,0E0,0E0,0E0,0E0,0E0,0E0,0E0,0E0,0E0,0E0,0E0,0E0,0E0,0E0,0E0],"parents":[2147483647,0,0,1,1,2,2,3,3,4,4,5,5,6,6,7,7,8,8,9,9,10,10,11,11,12,12,13,13,14,14,15,15,16,16,17,17,18,18,19,19,20,20,21,21,22,22,23,23,24,24,25,25,26,26,27,27,28,28,29,29,30,30,31,31,32,32,33,33,34,34,35,35,36,36,37,37,38,38,39,39,40,40,41,41,42,42,43,43,44,44,45,45,46,46,47,47,48,48,49,49,50,50,51,51,52,52,53,53,54,54,55,55,56,56,57,57,58,58,59,59,60,60,61,61,62,62],"right_children":[2,4,6,8,10,12,14,16,18,20,22,24,26,28,30,32,34,36,38,40,42,44,46,48,50,52,54,56,58,60,62,64,66,68,70,72,74,76,78,80,82,84,86,88,90,92,94,96,98,100,102,104,106,108,110,112,114,116,118,120,122,124,126,-1,-1,-1,-1,-1,-1,-1,-1,-1,-1,-1,-1,-1,-1,-1,-1,-1,-1,-1,-1,-1,-1,-1,-1,-1,-1,-1,-1,-1,-1,-1,-1,-1,-1,-1,-1,-1,-1,-1,-1,-1,-1,-1,-1,-1,-1,-1,-1,-1,-1,-1,-1,-1,-1,-1,-1,-1,-1,-1,-1,-1,-1,-1,-1],"split_conditions":[5.7896173E-1,4.9727082E-2,1.3565712E-1,1.3420704E-1,4.4877344E-1,3.8229227E-2,7.010966E-1,1.2540631E-1,7.969946E-4,2.5795063E-1,4.5972955E-1,7.125043E-1,4.4059515E-1,1.8031798E-1,5.2260812E-2,1.8928772E-1,1.49425E-1,2.384731E-2,4.7486544E-1,8.3102405E-2,2.0362031E-1,1.5233082E-1,3.6346406E-2,4.2424154E-2,2.795999E-2,2.6083332E-2,9.372389E-2,3.5199717E-2,5.4833677E-2,7.2133146E-2,1.843439E-1,2.386812E-1,2.4815187E-1,1.5692341E-1,2.901888E-1,5.123352E-1,3.3932003E-1,2.5221637E-1,4.0526558E-2,5.8638006E-2,1.2729704E-1,1.0053488E0,1.0809595E-1,6.5698963E-1,4.2835408E-4,1.0362801E-1,2.9661536E-1,8.623129E-3,1.4594781E-1,1.6898799E-1,3.7446223E-2,3.4462774E-1,1.5E0,1.0009172E0,1.20219395E-1,6.868763E-2,1.04783334E-1,5.1402915E-1,9.3098864E-2,3.4003973E-1,1.531992E-1,7.19973E-3,2.5681302E-1,-3.724371E-2,-1.2745553E-1,4.0618442E-2,-6.5452784E-2,-1.05979756E-1,-3.9381888E-2,7.3709E-2,-1.2813014E-2,3.7867565E-2,9.830769E-2,-3.0289134E-2,4.1390967E-2,1.4986311E-2,7.814747E-2,9.214401E-2,1.3430987E-1,5.105268E-2,1.0504139E-3,8.722955E-2,3.8002532E-2,1.3446814E-1,1.10174015E-1,1.0591977E-1,6.3416354E-2,-4.4877674E-2,4.0292084E-2,-3.534129E-3,7.1989544E-2,3.758511E-2,-2.99706E-2,7.244471E-2,1.3642614E-1,-1.4280498E-1,-1.08264916E-1,-1.12072766E-1,-3.4566414E-2,-1.5451837E-1,-1.5595885E-2,-1.4145191E-1,-9.530548E-2,1.4109571E-1,4.9533203E-2,6.344136E-2,-7.30873E-2,-1.1304022E-1,-3.996485E-2,-6.975928E-2,5.500267E-3,-4.232056E-3,-5.5325817E-2,-8.8998E-2,-1.4828875E-2,-2.8872093E-2,3.2978293E-2,7.9370104E-4,1.3197803E-1,-1.3027589E-1,-8.643528E-2,-1.5794886E-2,-9.425341E-2,-7.930038E-2,8.22008E-2,1.02261364E-1,-7.3231004E-2],"split_indices":[5,27,27,44,5,44,5,2,26,9,33,5,1,18,26,35,18,39,33,35,5,44,26,22,21,13,35,15,26,22,28,5,0,35,5,33,32,18,26,15,43,39,43,27,32,6,28,32,18,26,22,1,24,32,44,6,22,33,28,28,4,9,6,0,0,0,0,0,0,0,0,0,0,0,0,0,0,0,0,0,0,0,0,0,0,0,0,0,0,0,0,0,0,0,0,0,0,0,0,0,0,0,0,0,0,0,0,0,0,0,0,0,0,0,0,0,0,0,0,0,0,0,0,0,0,0,0],"split_type":[0,0,0,0,0,0,0,0,0,0,0,0,0,0,0,0,0,0,0,0,0,0,0,0,0,0,0,0,0,0,0,0,0,0,0,0,0,0,0,0,0,0,0,0,0,0,0,0,0,0,0,0,0,0,0,0,0,0,0,0,0,0,0,0,0,0,0,0,0,0,0,0,0,0,0,0,0,0,0,0,0,0,0,0,0,0,0,0,0,0,0,0,0,0,0,0,0,0,0,0,0,0,0,0,0,0,0,0,0,0,0,0,0,0,0,0,0,0,0,0,0,0,0,0,0,0,0],"sum_hessian":[5.9111445E4,2.2595965E4,3.651548E4,7.0090547E3,1.5586911E4,3.1775158E4,4.7403213E3,5.016322E3,1.992733E3,9.826511E3,5.7604E3,3.0556896E4,1.2182625E3,2.6721824E3,2.0681392E3,2.6882166E3,2.3281052E3,1.1380887E3,8.5464435E2,6.345333E3,3.481178E3,2.305722E3,3.4546782E3,6.082684E3,2.4474213E4,9.286237E1,1.1254E3,1.5489202E3,1.1232621E3,2.0305979E3,3.7541286E1,2.1701628E3,5.1805347E2,6.7082574E2,1.6572794E3,4.7031683E2,6.6777185E2,4.2276547E2,4.3187885E2,2.4377258E3,3.907607E3,1.2535072E3,2.227671E3,1.9788936E3,3.2682825E2,3.0653545E3,3.893237E2,5.547837E3,5.3484686E2,2.225314E4,2.2210715E3,3.9260334E1,5.360204E1,6.382936E2,4.8710648E2,5.8338995E2,9.655302E2,1.0664458E3,5.6816387E1,1.8276489E3,2.0294897E2,1.43655615E1,2.3175724E1,1.1952968E2,2.0506333E3,8.3770164E1,4.3428333E2,4.3837802E2,2.3244771E2,3.4542285E2,1.3118566E3,3.3507166E2,1.352452E2,4.6311932E2,2.0465254E2,2.0907608E2,2.1368939E2,2.709079E2,1.6097093E2,1.3083802E3,1.1293456E3,3.1877776E3,7.1982935E2,8.8802246E2,3.6548468E2,1.6195076E3,6.0816327E2,1.7465654E3,2.3232822E2,1.1017612E2,2.1665211E2,2.3357656E3,7.295889E2,1.6095529E2,2.2836842E2,3.8561917E3,1.6916454E3,1.9014572E2,3.447011E2,2.2236256E4,1.6885372E1,1.9901294E3,2.3094215E2,2.6685507E1,1.2574827E1,3.4579487E1,1.9022552E1,5.328261E2,1.0546745E2,2.7221252E2,2.1489395E2,3.3252856E2,2.5086142E2,8.453771E2,1.2015316E2,7.816298E2,2.8481595E2,5.6320457E0,5.118434E1,1.4601716E3,3.674772E2,9.639091E1,1.0655807E2,8.906348E0,5.4592133E0,2.1694992E1,1.4807318E0],"tree_param":{"num_deleted":"0","num_feature":"46","num_nodes":"127","size_leaf_vector":"0"}},{"base_weights":[-6.828245E-1,2.5705385E-1,-1.2399051E0,-3.026057E-1,4.9683395E-1,-7.3238367E-1,-1.3770252E0,-6.086784E-1,3.1138796E-1,7.4593896E-1,1.5882862E-1,-1.046026E0,-3.3711693E-1,-1.4236567E0,-9.649761E-1,-9.735638E-1,-2.993535E-2,-6.0215767E-2,6.779507E-1,9.9647653E-1,5.8588403E-1,-2.0862451E-1,3.521206E-1,-1.1412951E0,-2.101606E-1,-5.9427243E-1,1.6272392E-2,-1.4374021E0,-7.482223E-1,-9.905276E-1,8.855909E-1,-7.3522323E-1,-1.2770135E0,-1.8300514E-1,5.8813316E-1,-2.1620275E-1,6.473726E-1,9.6515083E-1,4.1607004E-1,7.316151E-1,1.1073344E0,2.1663584E-1,6.994989E-1,6.0417026E-2,-7.277047E-1,2.7493697E-1,1.1858641E0,-4.890678E-1,-1.2053123E0,7.4829483E-1,-3.4540585E-1,-7.8853804E-1,-2.6092035E-1,-1.4878304E-1,5.025574E-1,-1.4413438E0,-4.2946136E-1,-9.5607096E-1,6.864376E-2,-1.153325E0,-7.5879663E-1,-5.728375E-1,1.0797343E0,-8.8012093E-1,-2.2890465E-1,8.358283E-1,-1.2924601E0,-4.567442E-1,1.07293285E-1,6.8384165E-1,-1.2722604E-1,2.3150317E-1,-4.6936595E-1,7.8068703E-1,-1.7606986E-1,7.877668E-1,1.1917244E0,1.5841798E-1,7.9908895E-1,3.165867E-1,8.8150746E-1,1.0079274E0,1.2891275E0,4.776883E-1,-1.1414987E-1,9.6394056E-1,5.8827794E-1,-4.3482122E-1,2.3550798E-1,-9.663006E-1,-3.2574746E-1,4.377582E-1,-7.401144E-2,1.3632237E0,7.799128E-1,-5.5313426E-1,1.2098807E0,-1.3566471E0,-1.0254898E0,1.1826291E0,-5.3738385E-1,3.084695E-1,-4.888565E-1,-8.56185E-1,2.3095375E-1,-3.3295488E-1,9.205978E-1,-2.5323364E-1,6.445251E-1,3.92188E-1,1.4025383E0,-1.4455856E0,-6.5096176E-1,-2.8763903E-2,-8.917367E-1,3.7191793E-1,-1.0433062E0,6.450011E-1,-3.3714417E-1,-1.2216668E0,-7.519619E-1,-8.2120734E-1,1.1946346E-1,7.0200545E-1,-1.1115391E0,-1.2853368E-1,1.2528739E0],"categories":[],"categories_nodes":[],"categories_segments":[],"categories_sizes":[],"default_left":[0,1,0,1,0,1,1,1,1,0,1,1,1,1,1,1,1,1,1,1,1,1,1,0,0,1,1,1,1,1,1,1,0,0,1,1,1,1,1,0,1,1,0,1,1,1,1,1,1,1,0,1,1,1,1,1,1,0,1,1,1,0,1,0,0,0,0,0,0,0,0,0,0,0,0,0,0,0,0,0,0,0,0,0,0,0,0,0,0,0,0,0,0,0,0,0,0,0,0,0,0,0,0,0,0,0,0,0,0,0,0,0,0,0,0,0,0,0,0,0,0,0,0,0,0,0,0],"id":4,"left_children":[1,3,5,7,9,11,13,15,17,19,21,23,25,27,29,31,33,35,37,39,41,43,45,47,49,51,53,55,57,59,61,63,65,67,69,71,73,75,77,79,81,83,85,87,89,91,93,95,97,99,101,103,105,107,109,111,113,115,117,119,121,123,125,-1,-1,-1,-1,-1,-1,-1,-1,-1,-1,-1,-1,-1,-1,-1,-1,-1,-1,-1,-1,-1,-1,-1,-1,-1,-1,-1,-1,-1,-1,-1,-1,-1,-1,-1,-1,-1,-1,-1,-1,-1,-1,-1,-1,-1,-1,-1,-1,-1,-1,-1,-1,-1,-1,-1,-1,-1,-1,-1,-1,-1,-1,-1,-1],"loss_changes":[3.0152832E4,2.8761963E3,2.5152344E3,1.2083281E3,1.2635522E3,9.533794E2,5.455703E2,9.0601514E2,2.9144537E2,3.4578613E2,4.5231775E2,3.413003E2,3.094543E2,2.363164E2,1.3786157E2,1.8937524E2,1.5716515E2,1.1749624E2,8.060397E1,9.801294E1,2.2106299E2,3.0665213E2,2.6820233E2,1.601582E2,5.7300873E1,1.27430664E2,1.1526813E2,9.89375E1,8.700455E1,1.06944336E2,1.1939558E1,1.080968E2,3.8815308E1,1.0584453E2,2.2664574E1,9.893773E1,2.1248108E1,1.9675873E1,5.564097E1,6.1682007E1,4.1541992E1,1.07318115E2,1.1801587E2,1.2556845E2,7.1571075E1,2.171033E2,2.4371796E1,3.8306328E1,9.3995605E1,3.1198605E1,3.638716E1,8.604364E1,6.21974E1,8.9012726E1,3.5597855E1,8.274219E1,1.8318716E1,4.7683746E1,2.4727001E1,4.507495E1,6.490088E1,4.454876E0,7.615364E0,0E0,0E0,0E0,0E0,0E0,0E0,0E0,0E0,0E0,0E0,0E0,0E0,0E0,0E0,0E0,0E0,0E0,0E0,0E0,0E0,0E0,0E0,0E0,0E0,0E0,0E0,0E0,0E0,0E0,0E0,0E0,0E0,0E0,0E0,0E0,0E0,0E0,0E0,0E0,0E0,0E0,0E0,0E0,0E0,0E0,0E0,0E0,0E0,0E0,0E0,0E0,0E0,0E0,0E0,0E0,0E0,0E0,0E0,0E0,0E0,0E0,0E0,0E0,0E0],"parents":[2147483647,0,0,1,1,2,2,3,3,4,4,5,5,6,6,7,7,8,8,9,9,10,10,11,11,12,12,13,13,14,14,15,15,16,16,17,17,18,18,19,19,20,20,21,21,22,22,23,23,24,24,25,25,26,26,27,27,28,28,29,29,30,30,31,31,32,32,33,33,34,34,35,35,36,36,37,37,38,38,39,39,40,40,41,41,42,42,43,43,44,44,45,45,46,46,47,47,48,48,49,49,50,50,51,51,52,52,53,53,54,54,55,55,56,56,57,57,58,58,59,59,60,60,61,61,62,62],"right_children":[2,4,6,8,10,12,14,16,18,20,22,24,26,28,30,32,34,36,38,40,42,44,46,48,50,52,54,56,58,60,62,64,66,68,70,72,74,76,78,80,82,84,86,88,90,92,94,96,98,100,102,104,106,108,110,112,114,116,118,120,122,124,126,-1,-1,-1,-1,-1,-1,-1,-1,-1,-1,-1,-1,-1,-1,-1,-1,-1,-1,-1,-1,-1,-1,-1,-1,-1,-1,-1,-1,-1,-1,-1,-1,-1,-1,-1,-1,-1,-1,-1,-1,-1,-1,-1,-1,-1,-1,-1,-1,-1,-1,-1,-1,-1,-1,-1,-1,-1,-1,-1,-1,-1,-1,-1,-1],"split_conditions":[5.645374E-1,1.2516323E-1,6.7252535E-1,7.9395056E-2,4.113796E-1,6.7252025E-2,8.940194E-2,7.3762186E-2,7.122539E-3,4.5612213E-1,8.6950764E-2,8.406673E-2,1.7999175E-1,3.7501257E-2,9.015031E-2,6.9678116E-1,2.2869201E-1,5.136037E-1,5.6435585E-1,1.7452304E-1,1.6382068E-1,1.201222E-1,6.87072E-2,3.0924842E-1,4.9300045E-1,3.7746555E-1,5.1964617E-1,5.0025415E-1,8.758655E-1,1.6696903E-1,1.6569945E-3,1.9393039E-1,1.2003059E-2,1.8223709E-1,9.911884E-3,2.2402905E-2,1.0911311E-1,5.3907884E-3,3.059255E-1,1.9249704E-1,7.467422E-2,1.1564605E-1,1.964376E-2,1.5699321E-1,1.409333E-1,5.2260287E-2,6.4209414E-1,1.0008766E-1,2.3796754E-1,1.5E0,2.135458E-1,9.285982E-2,3.8931873E-2,1.427087E-1,2.7763776E-2,5.5777915E-2,6.1629433E-2,4.0810564E-1,1.0957679E-2,4.6151134E-1,2.564522E-1,7.275864E-1,2.1863613E-1,-8.801209E-2,-2.2890465E-2,8.358283E-2,-1.2924601E-1,-4.567442E-2,1.0729329E-2,6.838416E-2,-1.2722604E-2,2.3150317E-2,-4.6936598E-2,7.80687E-2,-1.7606987E-2,7.877668E-2,1.1917245E-1,1.5841799E-2,7.99089E-2,3.165867E-2,8.815075E-2,1.0079274E-1,1.2891275E-1,4.776883E-2,-1.1414987E-2,9.6394055E-2,5.8827795E-2,-4.348212E-2,2.35508E-2,-9.663006E-2,-3.2574747E-2,4.3775823E-2,-7.4011437E-3,1.3632236E-1,7.7991284E-2,-5.5313427E-2,1.2098807E-1,-1.3566472E-1,-1.0254898E-1,1.1826291E-1,-5.3738385E-2,3.0846952E-2,-4.888565E-2,-8.56185E-2,2.3095375E-2,-3.329549E-2,9.205978E-2,-2.5323365E-2,6.4452514E-2,3.9218802E-2,1.4025383E-1,-1.4455856E-1,-6.509618E-2,-2.8763905E-3,-8.917367E-2,3.7191793E-2,-1.0433062E-1,6.4500116E-2,-3.3714417E-2,-1.22166686E-1,-7.519619E-2,-8.212074E-2,1.1946346E-2,7.020055E-2,-1.11153916E-1,-1.2853368E-2,1.252874E-1],"split_indices":[5,2,5,44,5,27,21,14,32,1,27,44,18,44,26,40,36,33,1,18,18,43,26,0,1,28,33,29,32,18,9,35,39,18,16,39,12,26,20,2,26,15,39,18,35,19,1,26,38,24,0,44,26,44,26,26,6,1,34,7,9,5,33,0,0,0,0,0,0,0,0,0,0,0,0,0,0,0,0,0,0,0,0,0,0,0,0,0,0,0,0,0,0,0,0,0,0,0,0,0,0,0,0,0,0,0,0,0,0,0,0,0,0,0,0,0,0,0,0,0,0,0,0,0,0,0,0],"split_type":[0,0,0,0,0,0,0,0,0,0,0,0,0,0,0,0,0,0,0,0,0,0,0,0,0,0,0,0,0,0,0,0,0,0,0,0,0,0,0,0,0,0,0,0,0,0,0,0,0,0,0,0,0,0,0,0,0,0,0,0,0,0,0,0,0,0,0,0,0,0,0,0,0,0,0,0,0,0,0,0,0,0,0,0,0,0,0,0,0,0,0,0,0,0,0,0,0,0,0,0,0,0,0,0,0,0,0,0,0,0,0,0,0,0,0,0,0,0,0,0,0,0,0,0,0,0,0],"sum_hessian":[5.7587242E4,2.1430805E4,3.6156434E4,6.4277744E3,1.500303E4,7.6921006E3,2.8464334E4,4.2894927E3,2.1382817E3,8.636701E3,6.366329E3,4.2879697E3,3.4041309E3,2.5568322E4,2.896013E3,2.630399E3,1.6590938E3,1.0622546E3,1.0760271E3,3.3646743E3,5.272027E3,2.1944822E3,4.171847E3,3.8489177E3,4.390518E2,1.9699498E3,1.4341812E3,2.5057268E4,5.1105447E2,2.8570295E3,3.8983303E1,1.4751696E3,1.1552295E3,1.3303303E3,3.2876343E2,8.7094934E2,1.9130525E2,5.1192355E2,5.6410345E2,9.9500616E2,2.369668E3,1.2411606E3,4.0308662E3,1.4459326E3,7.4854956E2,3.81958E3,3.5226703E2,3.4478424E2,3.5041335E3,5.3731907E1,3.853199E2,1.2437637E3,7.261862E2,1.071265E3,3.6291605E2,2.4959232E4,9.803424E1,4.0725858E2,1.0379589E2,1.6757744E3,1.1812552E3,4.3505864E0,3.4632713E1,1.1463656E3,3.28804E2,7.998889E0,1.1472306E3,6.8439844E2,6.4593195E2,2.9000717E2,3.8756245E1,3.1462933E2,5.5632E2,1.6469348E2,2.6611765E1,2.8964102E2,2.2228255E2,3.380889E2,2.2601459E2,2.648341E2,7.3017206E2,1.5361984E3,8.3346967E2,6.9345184E2,5.4770874E2,1.1911326E3,2.8397336E3,3.772922E2,1.0686404E3,4.6884567E2,2.797039E2,2.6041943E3,1.2153857E3,2.4351678E2,1.0875025E2,3.3290497E2,1.1879245E1,1.8992328E3,1.6049008E3,4.0223545E1,1.3508364E1,6.911773E1,3.1620215E2,1.1665209E3,7.724272E1,6.8513336E2,4.105285E1,9.472293E2,1.2403578E2,3.2455048E2,3.836555E1,2.4825172E4,1.3406142E2,5.3083775E1,4.495047E1,2.4902506E1,3.8235608E2,4.2641254E1,6.1154636E1,1.4302037E3,2.4557072E2,1.1029431E3,7.831212E1,1.2022667E0,3.14832E0,4.373003E0,3.0259712E1],"tree_param":{"num_deleted":"0","num_feature":"46","num_nodes":"127","size_leaf_vector":"0"}},{"base_weights":[-6.3460475E-1,1.6942511E-1,-1.210467E0,-2.3411675E-1,4.8233917E-1,-1.3071119E0,-6.9928837E-1,-4.697144E-1,3.9877483E-1,6.860394E-1,1.2626533E-1,-1.3289045E0,-4.9561447E-1,-4.3613783E-1,-1.0821484E0,-8.767608E-1,-9.40577E-2,6.7512137E-1,1.4591292E-1,7.955123E-1,3.18505E-1,-1.2544592E-1,4.9003637E-1,-1.1442417E0,-1.3770661E0,-9.198577E-1,-2.0689197E-1,-5.430445E-1,1.3090634E-1,-1.1070776E0,5.624546E-1,-1.0825638E0,-4.8292747E-1,4.774324E-1,-2.825398E-1,4.9845502E-1,9.4419754E-1,-1.9305222E-1,3.2777137E-1,6.519846E-1,1.083365E0,3.3934116E-2,6.707617E-1,-1.8219665E-1,1.1196264E0,2.2462964E-1,7.2406095E-1,-5.453239E-1,-1.2016925E0,-1.3960032E0,-1.261502E0,6.0163116E-1,-9.68414E-1,-3.154284E-1,9.945809E-1,-5.8896655E-1,6.151188E-1,-9.3798846E-2,6.8502784E-1,-1.1971192E0,-7.6950634E-1,1.2163811E0,1.4622295E-1,-1.2010576E0,-6.914232E-1,-6.2192446E-1,2.7055705E-1,3.1721887E-1,8.931448E-1,2.656206E-1,-4.2241204E-1,2.6650468E-1,7.432846E-1,8.427056E-1,1.2746718E0,-3.3127585E-1,5.621897E-1,1.6648866E-1,7.143327E-1,5.330023E-1,9.428421E-1,1.1908011E0,8.595193E-1,-1.756953E-1,5.234448E-1,4.8584762E-1,1.0703666E0,-3.9382052E-1,1.2216332E-1,4.6979675E-1,1.2762431E0,8.2421386E-1,8.093949E-2,9.041776E-1,3.427788E-1,-6.805318E-1,3.3708638E-1,-1.3048671E0,-1.0040592E0,-1.3971617E0,-4.8106366E-1,-1.2736914E0,-1.0304973E-1,-3.8480538E-1,1.4337826E0,-3.2356113E-1,-1.0566125E0,-5.4662573E-1,1.555516E-1,1.1147876E0,-3.4808412E-1,-6.8946713E-1,-7.8009024E-2,3.336413E-1,1.326622E0,-4.4200793E-1,2.7724645E-1,3.9366695E-1,1.059129E0,-1.2731704E0,-8.676235E-1,-8.3545506E-1,3.804938E-1,-5.7633436E-1,1.4654374E0,7.750165E-1,-4.1226467E-1],"categories":[],"categories_nodes":[],"categories_segments":[],"categories_sizes":[],"default_left":[0,1,1,1,0,1,1,1,0,1,1,1,1,1,1,1,0,1,1,1,1,1,1,0,1,0,1,1,1,1,1,1,1,1,0,1,1,1,0,1,1,1,1,1,1,1,1,1,1,1,1,1,0,0,1,1,1,1,0,1,1,0,1,0,0,0,0,0,0,0,0,0,0,0,0,0,0,0,0,0,0,0,0,0,0,0,0,0,0,0,0,0,0,0,0,0,0,0,0,0,0,0,0,0,0,0,0,0,0,0,0,0,0,0,0,0,0,0,0,0,0,0,0,0,0,0,0],"id":5,"left_children":[1,3,5,7,9,11,13,15,17,19,21,23,25,27,29,31,33,35,37,39,41,43,45,47,49,51,53,55,57,59,61,63,65,67,69,71,73,75,77,79,81,83,85,87,89,91,93,95,97,99,101,103,105,107,109,111,113,115,117,119,121,123,125,-1,-1,-1,-1,-1,-1,-1,-1,-1,-1,-1,-1,-1,-1,-1,-1,-1,-1,-1,-1,-1,-1,-1,-1,-1,-1,-1,-1,-1,-1,-1,-1,-1,-1,-1,-1,-1,-1,-1,-1,-1,-1,-1,-1,-1,-1,-1,-1,-1,-1,-1,-1,-1,-1,-1,-1,-1,-1,-1,-1,-1,-1,-1,-1],"loss_changes":[2.5835285E4,2.9406223E3,1.6052852E3,1.5167959E3,9.512854E2,4.828711E2,5.205718E2,1.1333613E3,1.927438E2,3.35437E2,4.3722086E2,2.3522656E2,8.7591156E1,1.8597522E2,8.696484E1,2.8781982E2,4.1548746E2,6.21994E1,8.897621E1,2.6485742E2,1.9208466E2,1.9964297E2,1.2112448E2,1.8906201E2,4.444922E1,2.2001648E1,5.609071E1,1.3760187E2,6.073519E1,6.2145264E1,8.561783E0,1.0742407E2,1.2823303E2,6.343605E1,2.2248532E2,4.5116226E1,1.6413788E1,5.282795E1,5.8429947E1,1.4801904E2,5.0372803E1,1.0897933E2,6.2755676E1,1.7397923E2,1.19374695E1,7.889051E1,7.092444E1,5.802693E1,1.0126123E2,1.8542969E1,4.19917E1,8.418254E0,1.5659424E1,4.2883675E1,6.146469E0,1.27426636E2,1.9364716E1,4.5027504E1,1.4919586E1,3.9895508E1,3.3665283E1,6.3596134E0,7.608878E0,0E0,0E0,0E0,0E0,0E0,0E0,0E0,0E0,0E0,0E0,0E0,0E0,0E0,0E0,0E0,0E0,0E0,0E0,0E0,0E0,0E0,0E0,0E0,0E0,0E0,0E0,0E0,0E0,0E0,0E0,0E0,0E0,0E0,0E0,0E0,0E0,0E0,0E0,0E0,0E0,0E0,0E0,0E0,0E0,0E0,0E0,0E0,0E0,0E0,0E0,0E0,0E0,0E0,0E0,0E0,0E0,0E0,0E0,0E0,0E0,0E0,0E0,0E0,0E0],"parents":[2147483647,0,0,1,1,2,2,3,3,4,4,5,5,6,6,7,7,8,8,9,9,10,10,11,11,12,12,13,13,14,14,15,15,16,16,17,17,18,18,19,19,20,20,21,21,22,22,23,23,24,24,25,25,26,26,27,27,28,28,29,29,30,30,31,31,32,32,33,33,34,34,35,35,36,36,37,37,38,38,39,39,40,40,41,41,42,42,43,43,44,44,45,45,46,46,47,47,48,48,49,49,50,50,51,51,52,52,53,53,54,54,55,55,56,56,57,57,58,58,59,59,60,60,61,61,62,62],"right_children":[2,4,6,8,10,12,14,16,18,20,22,24,26,28,30,32,34,36,38,40,42,44,46,48,50,52,54,56,58,60,62,64,66,68,70,72,74,76,78,80,82,84,86,88,90,92,94,96,98,100,102,104,106,108,110,112,114,116,118,120,122,124,126,-1,-1,-1,-1,-1,-1,-1,-1,-1,-1,-1,-1,-1,-1,-1,-1,-1,-1,-1,-1,-1,-1,-1,-1,-1,-1,-1,-1,-1,-1,-1,-1,-1,-1,-1,-1,-1,-1,-1,-1,-1,-1,-1,-1,-1,-1,-1,-1,-1,-1,-1,-1,-1,-1,-1,-1,-1,-1,-1,-1,-1,-1,-1,-1],"split_conditions":[5.9362787E-1,8.714411E-1,9.751649E-2,1.3658607E-1,4.568298E-1,5.684796E-2,7.3161644E-1,1.3990098E-1,5.7338715E-1,1.5951353E-1,2.1434912E-1,7.2238255E-1,1.7464322E-1,3.808448E-1,5.328136E-2,1.9130945E-1,3.39047E-1,6.59948E-2,6.700492E-2,3.0639734E-2,5.1412106E-1,9.949212E-2,4.747287E-1,4.2191213E-1,2.5E0,3.518389E-1,9.923307E-3,4.9650796E-2,1.3545093E-1,2.1688685E-1,1.4752168E-2,5.3431594E-1,1.2827423E-1,5.0298154E-1,3.170508E-1,7.369093E-4,3.0451126E-2,1.2471611E-2,3.7297925E-1,2.7924162E-1,2.9633886E-1,2.5940382E-1,5.016103E-1,1.01484485E-1,4.7879696E-1,2.3267465E-2,1.3656989E-1,3.460641E-1,1.6601641E-1,5.004542E-1,4.7479376E-2,1.0711993E-1,2.6791322E-1,1.8703815E-1,1.1661277E-1,2.360505E-2,5.5022585E-1,9.7754705E-1,9.827691E-1,3.558366E-1,2.0544666E-1,2.1624586E-2,1.0031931E0,-1.2010576E-1,-6.914232E-2,-6.2192447E-2,2.7055705E-2,3.1721886E-2,8.931448E-2,2.656206E-2,-4.2241205E-2,2.6650468E-2,7.432846E-2,8.427056E-2,1.2746719E-1,-3.3127587E-2,5.621897E-2,1.6648866E-2,7.143327E-2,5.330023E-2,9.4284214E-2,1.1908012E-1,8.595193E-2,-1.756953E-2,5.234448E-2,4.8584763E-2,1.07036665E-1,-3.938205E-2,1.2216332E-2,4.6979677E-2,1.2762432E-1,8.2421385E-2,8.0939485E-3,9.0417765E-2,3.4277882E-2,-6.805318E-2,3.370864E-2,-1.3048671E-1,-1.00405924E-1,-1.3971618E-1,-4.810637E-2,-1.2736915E-1,-1.0304973E-2,-3.848054E-2,1.4337826E-1,-3.2356113E-2,-1.0566125E-1,-5.4662574E-2,1.555516E-2,1.1147876E-1,-3.4808412E-2,-6.894671E-2,-7.8009027E-3,3.336413E-2,1.326622E-1,-4.4200793E-2,2.7724644E-2,3.9366696E-2,1.059129E-1,-1.2731704E-1,-8.6762354E-2,-8.3545506E-2,3.804938E-2,-5.7633437E-2,1.4654374E-1,7.750165E-2,-4.122647E-2],"split_indices":[5,32,27,44,5,44,5,25,1,43,18,5,18,18,26,18,5,14,35,26,21,26,33,0,24,1,26,26,35,18,34,38,31,2,0,26,26,26,44,35,42,9,9,35,38,39,43,35,18,29,26,35,0,44,19,22,21,32,45,21,22,44,41,0,0,0,0,0,0,0,0,0,0,0,0,0,0,0,0,0,0,0,0,0,0,0,0,0,0,0,0,0,0,0,0,0,0,0,0,0,0,0,0,0,0,0,0,0,0,0,0,0,0,0,0,0,0,0,0,0,0,0,0,0,0,0,0],"split_type":[0,0,0,0,0,0,0,0,0,0,0,0,0,0,0,0,0,0,0,0,0,0,0,0,0,0,0,0,0,0,0,0,0,0,0,0,0,0,0,0,0,0,0,0,0,0,0,0,0,0,0,0,0,0,0,0,0,0,0,0,0,0,0,0,0,0,0,0,0,0,0,0,0,0,0,0,0,0,0,0,0,0,0,0,0,0,0,0,0,0,0,0,0,0,0,0,0,0,0,0,0,0,0,0,0,0,0,0,0,0,0,0,0,0,0,0,0,0,0,0,0,0,0,0,0,0,0],"sum_hessian":[5.5797055E4,2.3285752E4,3.2511303E4,1.0170225E4,1.3115527E4,2.7340648E4,5.170654E3,7.4115054E3,2.7587192E3,8.342234E3,4.7732925E3,2.6624998E4,7.1565027E2,3.0656707E3,2.104983E3,3.556496E3,3.8550093E3,1.3173501E3,1.4413691E3,6.426798E3,1.9154364E3,2.821566E3,1.9517266E3,5.512721E3,2.1112277E4,2.8892444E2,4.2672586E2,2.5794084E3,4.862621E2,2.0738738E3,3.1109226E1,2.3347117E3,1.2217845E3,9.5570776E2,2.8993015E3,7.969513E2,5.203988E2,5.0326825E2,9.381009E2,4.2906694E3,2.1361287E3,1.0601166E3,8.5531976E2,2.699381E3,1.2218484E2,9.1546246E2,1.036264E3,4.8343637E2,5.029285E3,1.8130262E4,2.9820144E3,8.583221E0,2.8034122E2,3.9204727E2,3.467858E1,2.4815063E3,9.79021E1,3.4655798E2,1.3970412E2,1.635172E3,4.387018E2,1.1352055E1,1.9757172E1,1.7902848E3,5.444269E2,1.0316486E3,1.9013596E2,6.911175E2,2.6459024E2,5.89225E2,2.3100767E3,4.103121E2,3.8663916E2,4.008452E2,1.1955359E2,4.2588464E2,7.738362E1,6.629379E2,2.75163E2,3.0470376E3,1.2436316E3,1.4404539E3,6.956747E2,7.4270123E2,3.1741537E2,5.86252E2,2.6906775E2,1.5920927E3,1.1072886E3,2.4505785E1,9.7679054E1,1.7606207E2,7.394004E2,7.0286237E2,3.334017E2,4.1940204E2,6.4034355E1,3.3006E3,1.7286848E3,1.810681E4,2.3452904E1,2.9508655E3,3.114874E1,4.1735053E0,4.4097166E0,3.4291508E1,2.4604971E2,2.6285495E2,1.2919234E2,3.1984758E1,2.6938233E0,2.0733489E3,4.081576E2,7.120259E1,2.6699507E1,1.7868192E2,1.6787607E2,7.969086E1,6.0013256E1,1.3262057E3,3.0896625E2,4.151669E2,2.353492E1,1.2244378E0,1.0127617E1,9.111242E0,1.0645928E1],"tree_param":{"num_deleted":"0","num_feature":"46","num_nodes":"127","size_leaf_vector":"0"}},{"base_weights":[-5.9129673E-1,1.308532E-1,-1.1652613E0,-1.7269997E-1,5.0873286E-1,-1.2624065E0,-7.1517074E-1,-7.5842947E-1,1.9572826E-2,3.54838E-1,8.86171E-1,-1.2905236E0,-5.078565E-1,-4.8475242E-1,-1.0440881E0,-9.788738E-1,-1.1718389E-1,-4.7650126E-1,1.9024454E-1,1.6238728E-1,6.6966313E-1,1.0755711E0,5.897987E-1,-1.2962877E0,-2.0660526E-1,6.371063E-1,-6.3432306E-1,-2.942401E-1,-7.803267E-1,-1.0927202E0,-5.083796E-1,-1.1071831E0,-5.2955806E-1,-3.719007E-1,3.7185648E-1,-2.3301447E-2,-6.414133E-1,-5.8949385E-2,4.4335687E-1,-1.1050498E-1,3.7357432E-1,7.4414283E-1,2.3105532E-1,1.1458296E0,8.197626E-1,2.88794E-1,9.033686E-1,-1.1812284E0,-1.337577E0,-4.3545508E-1,7.3633564E-1,2.3239541E-1,1.1159081E0,-7.976316E-1,-2.382427E-2,-3.8566336E-1,3.6304253E-1,-8.179354E-1,5.527749E-1,-1.1563596E0,-7.5333524E-1,4.8930787E-2,-7.74077E-1,-1.2441322E0,-8.8317436E-1,-4.7124006E-2,-7.2636956E-1,-9.9219537E-1,-1.2985642E-1,8.8730514E-1,1.360906E-1,6.989805E-1,-1.4973469E-1,-9.528806E-1,-3.5481107E-1,-2.1489121E-1,3.3673868E-1,6.601548E-1,2.5481752E-1,5.3825963E-2,-4.7222453E-1,6.903831E-1,2.2233352E-1,9.8520386E-1,6.27944E-1,-3.3517593E-1,3.7794673E-1,1.0632102E0,1.2950006E0,2.8284618E-1,9.709481E-1,5.339795E-3,6.17738E-1,6.9885135E-1,1.1345414E0,-1.2521256E0,-9.344724E-1,-1.3380767E0,3.8070855E-1,-6.695495E-1,5.5017334E-1,-4.7694367E-1,1.059036E0,-2.504597E-1,8.2864845E-1,1.2063344E0,-7.5980157E-1,-9.646426E-3,-8.9546144E-1,-5.0105566E-1,3.5379562E-1,1.8517848E-2,-5.225732E-1,-6.298187E-1,5.4868954E-1,-9.1430825E-1,-4.6794593E-1,-4.239236E-1,1.170114E0,-1.2124043E0,-8.4129936E-1,-8.3293253E-1,3.8010925E-1,-9.679459E-1,2.997041E-1,-8.571606E-1,1.2125671E0],"categories":[],"categories_nodes":[],"categories_segments":[],"categories_sizes":[],"default_left":[0,1,1,1,1,1,1,1,1,1,1,1,0,1,1,1,1,1,1,1,1,1,1,1,1,1,1,1,1,1,1,1,1,0,1,0,1,1,1,1,0,1,1,1,1,1,1,1,1,1,0,1,1,0,0,1,0,1,1,1,1,1,1,0,0,0,0,0,0,0,0,0,0,0,0,0,0,0,0,0,0,0,0,0,0,0,0,0,0,0,0,0,0,0,0,0,0,0,0,0,0,0,0,0,0,0,0,0,0,0,0,0,0,0,0,0,0,0,0,0,0,0,0,0,0,0,0],"id":6,"left_children":[1,3,5,7,9,11,13,15,17,19,21,23,25,27,29,31,33,35,37,39,41,43,45,47,49,51,53,55,57,59,61,63,65,67,69,71,73,75,77,79,81,83,85,87,89,91,93,95,97,99,101,103,105,107,109,111,113,115,117,119,121,123,125,-1,-1,-1,-1,-1,-1,-1,-1,-1,-1,-1,-1,-1,-1,-1,-1,-1,-1,-1,-1,-1,-1,-1,-1,-1,-1,-1,-1,-1,-1,-1,-1,-1,-1,-1,-1,-1,-1,-1,-1,-1,-1,-1,-1,-1,-1,-1,-1,-1,-1,-1,-1,-1,-1,-1,-1,-1,-1,-1,-1,-1,-1,-1,-1],"loss_changes":[2.239595E4,2.7448225E3,1.315418E3,1.4944667E3,6.1884717E2,5.246367E2,4.047019E2,4.6347156E2,8.4601917E2,4.5876996E2,1.7263232E2,1.4885938E2,1.2943907E2,1.7691809E2,5.6802734E1,1.4010474E2,1.0478971E2,1.9115405E2,4.6895215E2,2.7100708E2,9.36814E1,3.2885498E1,1.1354138E2,1.1121484E2,2.782301E1,1.7013435E1,8.003891E1,1.1518622E2,6.223877E1,4.2704346E1,2.7447159E1,5.7108643E1,5.1618103E1,8.288339E1,3.4905174E1,6.2519596E1,1.670719E2,2.3128745E2,1.505943E2,1.2199778E2,1.2685541E2,6.816272E1,3.493478E1,1.6789062E1,3.2928436E1,5.749358E1,2.7104462E1,1.08671875E2,1.5509766E1,2.4176567E1,1.0395911E1,1.4478762E1,7.7975006E0,4.8826294E1,3.090313E1,9.304335E1,4.3531414E1,4.0012512E1,2.1243599E1,2.8946533E1,2.9317398E1,1.5768582E1,2.173832E1,0E0,0E0,0E0,0E0,0E0,0E0,0E0,0E0,0E0,0E0,0E0,0E0,0E0,0E0,0E0,0E0,0E0,0E0,0E0,0E0,0E0,0E0,0E0,0E0,0E0,0E0,0E0,0E0,0E0,0E0,0E0,0E0,0E0,0E0,0E0,0E0,0E0,0E0,0E0,0E0,0E0,0E0,0E0,0E0,0E0,0E0,0E0,0E0,0E0,0E0,0E0,0E0,0E0,0E0,0E0,0E0,0E0,0E0,0E0,0E0,0E0,0E0,0E0,0E0],"parents":[2147483647,0,0,1,1,2,2,3,3,4,4,5,5,6,6,7,7,8,8,9,9,10,10,11,11,12,12,13,13,14,14,15,15,16,16,17,17,18,18,19,19,20,20,21,21,22,22,23,23,24,24,25,25,26,26,27,27,28,28,29,29,30,30,31,31,32,32,33,33,34,34,35,35,36,36,37,37,38,38,39,39,40,40,41,41,42,42,43,43,44,44,45,45,46,46,47,47,48,48,49,49,50,50,51,51,52,52,53,53,54,54,55,55,56,56,57,57,58,58,59,59,60,60,61,61,62,62],"right_children":[2,4,6,8,10,12,14,16,18,20,22,24,26,28,30,32,34,36,38,40,42,44,46,48,50,52,54,56,58,60,62,64,66,68,70,72,74,76,78,80,82,84,86,88,90,92,94,96,98,100,102,104,106,108,110,112,114,116,118,120,122,124,126,-1,-1,-1,-1,-1,-1,-1,-1,-1,-1,-1,-1,-1,-1,-1,-1,-1,-1,-1,-1,-1,-1,-1,-1,-1,-1,-1,-1,-1,-1,-1,-1,-1,-1,-1,-1,-1,-1,-1,-1,-1,-1,-1,-1,-1,-1,-1,-1,-1,-1,-1,-1,-1,-1,-1,-1,-1,-1,-1,-1,-1,-1,-1,-1],"split_conditions":[6.0727894E-1,4.6837628E-1,4.716029E-2,2.4735764E-1,3.3714376E-2,3.8333207E-2,7.44133E-1,5.947708E-2,1.524558E-1,1.6408947E-1,9.834611E-2,5.004041E-1,4.4111773E-1,8.639234E-2,1.13465235E-1,4.9758803E-2,8.898208E-3,1.1353551E-1,1.18431434E-1,1.7802629E-1,1.1486745E-1,6.274533E-1,3.741023E-1,7.640302E-1,2.5150657E-1,5.2515817E-1,5.340053E-1,1.4647602E-1,6.8791464E-2,2.5880843E-1,2.5412321E-2,1.6789855E-1,1.1194986E-2,1.7420635E-1,5.055177E-1,3.5327658E-1,8.123015E-2,1.18784636E-1,5.480172E-1,7.346888E-2,5.1031137E-1,4.6857625E-1,1.43486E-1,5.164889E-1,9.88355E-2,1.4179097E-1,5.0174E-1,1.7944488E-1,9.223802E-1,2.724213E-3,1.4328972E-1,5.9049632E-3,4.714957E-1,2.699828E-1,1.9354692E-1,3.237621E-2,1.2735331E-1,4.6214098E-1,4.438381E-1,3.8416255E-1,2.6622075E-1,1.2850496E-1,1.4522949E-1,-1.24413215E-1,-8.831744E-2,-4.7124005E-3,-7.2636954E-2,-9.921954E-2,-1.2985642E-2,8.8730514E-2,1.3609061E-2,6.9898054E-2,-1.4973469E-2,-9.528806E-2,-3.5481106E-2,-2.1489121E-2,3.3673868E-2,6.601548E-2,2.5481751E-2,5.3825965E-3,-4.7222454E-2,6.903831E-2,2.2233352E-2,9.852039E-2,6.27944E-2,-3.3517595E-2,3.7794676E-2,1.0632103E-1,1.2950006E-1,2.8284619E-2,9.709481E-2,5.339795E-4,6.1773803E-2,6.9885135E-2,1.1345414E-1,-1.2521257E-1,-9.344724E-2,-1.3380767E-1,3.8070854E-2,-6.6954955E-2,5.5017333E-2,-4.7694366E-2,1.059036E-1,-2.504597E-2,8.286484E-2,1.2063344E-1,-7.598016E-2,-9.646426E-4,-8.9546144E-2,-5.0105568E-2,3.5379563E-2,1.8517849E-3,-5.2257318E-2,-6.298187E-2,5.4868955E-2,-9.143083E-2,-4.6794593E-2,-4.2392362E-2,1.17011406E-1,-1.2124043E-1,-8.412994E-2,-8.329325E-2,3.8010925E-2,-9.679459E-2,2.9970411E-2,-8.571606E-2,1.2125671E-1],"split_indices":[5,37,21,38,26,44,5,44,18,35,43,29,1,6,22,21,32,15,35,18,6,1,28,5,35,33,32,9,26,18,19,18,41,18,1,5,35,44,1,6,1,1,18,33,27,36,9,18,31,26,18,32,25,0,18,15,18,28,38,21,31,18,36,0,0,0,0,0,0,0,0,0,0,0,0,0,0,0,0,0,0,0,0,0,0,0,0,0,0,0,0,0,0,0,0,0,0,0,0,0,0,0,0,0,0,0,0,0,0,0,0,0,0,0,0,0,0,0,0,0,0,0,0,0,0,0,0],"split_type":[0,0,0,0,0,0,0,0,0,0,0,0,0,0,0,0,0,0,0,0,0,0,0,0,0,0,0,0,0,0,0,0,0,0,0,0,0,0,0,0,0,0,0,0,0,0,0,0,0,0,0,0,0,0,0,0,0,0,0,0,0,0,0,0,0,0,0,0,0,0,0,0,0,0,0,0,0,0,0,0,0,0,0,0,0,0,0,0,0,0,0,0,0,0,0,0,0,0,0,0,0,0,0,0,0,0,0,0,0,0,0,0,0,0,0,0,0,0,0,0,0,0,0,0,0,0,0],"sum_hessian":[5.4031375E4,2.3927314E4,3.0104062E4,1.326888E4,1.0658435E4,2.4758508E4,5.345554E3,3.2784973E3,9.990383E3,7.572713E3,3.0857217E3,2.3868379E4,8.901283E2,3.1449084E3,2.2006455E3,2.4393745E3,8.391228E2,2.5568513E3,7.4335312E3,4.7007114E3,2.8720015E3,1.8810109E3,1.2047108E3,2.3741932E4,1.2644859E2,8.813768E1,8.019906E2,1.9135353E3,1.2313733E3,2.0165426E3,1.8410294E2,1.8963711E3,5.430034E2,5.519033E2,2.8721948E2,6.824716E2,1.8743798E3,3.7461458E3,3.6873853E3,2.0509658E3,2.6497458E3,2.4545068E3,4.1749478E2,1.472975E3,4.0803592E2,6.1565094E2,5.8905994E2,6.2777163E3,1.7464215E4,1.0218636E2,2.4262226E1,4.8569397E1,3.9568283E1,6.3249225E2,1.6949835E2,1.6802393E3,2.3329593E2,1.1979634E3,3.340984E1,1.6960942E3,3.2044843E2,5.9698627E1,1.2440431E2,1.1740529E3,7.2231824E2,1.5769444E2,3.8530896E2,1.5404024E2,3.978631E2,8.9275444E1,1.9794405E2,1.009933E2,5.8147833E2,8.971115E2,9.7726825E2,2.6874648E3,1.0586809E3,1.7139938E3,1.9733915E3,1.4108575E3,6.401082E2,8.550601E2,1.7946857E3,7.958965E2,1.6586104E3,8.5732956E1,3.317618E2,9.531783E2,5.1979663E2,9.028189E1,3.1775403E2,3.3123703E2,2.844139E2,3.146839E2,2.7437604E2,4.873425E3,1.4042917E3,1.7459357E4,4.856658E0,8.283346E1,1.9352905E1,4.996933E0,1.9265293E1,2.7157095E1,2.14123E1,3.8088917E1,1.4793656E0,6.997406E1,5.625182E2,7.472939E1,9.476897E1,4.253621E2,1.2548772E3,3.637355E1,1.9692238E2,9.380503E2,2.599131E2,1.3060305E1,2.0349535E1,1.43753E3,2.585641E2,2.99669E2,2.077943E1,1.1244153E1,4.8454475E1,1.1995615E2,4.448162E0],"tree_param":{"num_deleted":"0","num_feature":"46","num_nodes":"127","size_leaf_vector":"0"}},{"base_weights":[-5.536419E-1,9.527803E-2,-1.1294161E0,3.6961997E-1,-2.930628E-1,-1.2155442E0,-6.9596857E-1,3.9052412E-2,5.792839E-1,-6.541549E-1,1.205763E-2,-1.2354448E0,-6.3976866E-1,-4.624658E-1,-9.851319E-1,-1.9150719E-1,5.020543E-1,4.3281525E-1,8.62756E-1,-8.4769225E-1,-9.064667E-2,-1.0090142E-1,5.885289E-1,-1.2387683E0,1.1702387E0,-9.4564265E-1,-3.5332662E-1,-5.2582175E-1,3.0489707E-1,-1.0445609E0,-3.5646254E-1,-4.5909712E-1,2.3598997E-1,2.7966067E-1,7.326051E-1,5.4859215E-1,8.469182E-2,6.8241495E-1,9.849531E-1,-9.945254E-1,-3.9642033E-1,5.034886E-1,-2.4990225E-1,-3.11699E-1,1.7458685E-1,4.6040037E-1,1.0893991E0,-1.2515302E0,-7.4745053E-1,1.8617254E0,-1.2486951E-2,-9.822521E-1,4.2873952E-1,-4.43047E-1,7.1969116E-1,-6.8776965E-1,-1.7187366E-1,6.525717E-1,-1.8373628E-1,-1.1161003E0,-6.8744195E-1,-6.199294E-1,1.9376548E-1,-1.015511E0,-3.1810907E-1,-3.3412673E-2,5.051719E-1,3.3082712E-2,5.246475E-1,5.515636E-1,9.4009477E-1,1.6891824E-1,6.3528156E-1,-2.1861993E-1,3.2750866E-1,5.189822E-1,9.7089595E-1,7.7231836E-1,1.0492901E0,-1.1105673E0,-6.511278E-1,-5.5145663E-1,3.0336162E-1,2.6748648E-1,8.8887787E-1,-3.715791E-1,2.866931E-1,-1.8806571E-1,-8.1182235E-1,8.575844E-2,1.0304672E0,3.5921746E-1,1.1360303E0,-2.2306073E-1,1.1152729E0,-1.2748036E0,-1.0831703E0,-8.571608E-1,2.8325477E-1,2.096656E0,-5.360995E-1,-7.990223E-1,1.1680336E0,-1.0303715E0,-6.904979E-2,7.6936764E-1,-9.158261E-1,-6.364369E-1,-2.6599113E-3,9.1458887E-1,-4.3595487E-1,-7.8870654E-1,-1.604208E-1,4.0578893E-1,-2.909926E-1,3.991248E-1,1.2101659E0,-4.3300855E-1,9.731327E-1,-1.1402119E0,-2.132401E-1,-5.2217238E-2,-8.455847E-1,-7.5083786E-1,7.866052E-1,7.1209025E-1,-4.1328666E-1],"categories":[],"categories_nodes":[],"categories_segments":[],"categories_sizes":[],"default_left":[0,0,1,1,1,1,1,1,1,1,1,1,1,1,1,1,1,1,1,1,0,1,1,1,1,1,1,1,0,1,1,1,1,1,1,1,1,1,1,1,1,1,1,1,1,1,0,1,1,1,1,1,1,1,1,1,1,0,1,1,0,1,1,0,0,0,0,0,0,0,0,0,0,0,0,0,0,0,0,0,0,0,0,0,0,0,0,0,0,0,0,0,0,0,0,0,0,0,0,0,0,0,0,0,0,0,0,0,0,0,0,0,0,0,0,0,0,0,0,0,0,0,0,0,0,0,0],"id":7,"left_children":[1,3,5,7,9,11,13,15,17,19,21,23,25,27,29,31,33,35,37,39,41,43,45,47,49,51,53,55,57,59,61,63,65,67,69,71,73,75,77,79,81,83,85,87,89,91,93,95,97,99,101,103,105,107,109,111,113,115,117,119,121,123,125,-1,-1,-1,-1,-1,-1,-1,-1,-1,-1,-1,-1,-1,-1,-1,-1,-1,-1,-1,-1,-1,-1,-1,-1,-1,-1,-1,-1,-1,-1,-1,-1,-1,-1,-1,-1,-1,-1,-1,-1,-1,-1,-1,-1,-1,-1,-1,-1,-1,-1,-1,-1,-1,-1,-1,-1,-1,-1,-1,-1,-1,-1,-1,-1],"loss_changes":[1.948916E4,2.6128328E3,1.0309453E3,9.960547E2,1.1186416E3,2.6338672E2,3.0904834E2,5.956242E2,3.6475073E2,5.0705872E2,3.584693E2,1.796211E2,6.733258E1,1.2354462E2,7.610437E1,4.262182E2,9.489682E1,2.3372583E2,6.532593E1,2.28948E2,1.1271341E2,2.6736612E2,5.7381744E1,1.3860156E2,2.5587849E1,1.918341E1,3.886828E1,1.342826E2,3.3109673E1,4.6999023E1,2.5968885E1,1.7942209E2,1.0405602E2,5.711228E1,3.3668182E1,1.4314624E2,1.0676997E2,5.668091E1,2.3580933E1,1.0331323E2,9.253366E1,2.2669476E1,6.141771E1,1.611097E2,1.5166124E2,4.880948E1,6.4630585E0,8.360156E1,6.4232605E1,1.2239807E1,1.2564106E1,1.5903015E1,5.4545856E0,3.1522194E1,7.443758E0,8.548291E1,5.085698E1,1.5582169E1,2.3926672E1,3.3630615E1,3.1562729E1,2.2835365E1,1.8700195E1,0E0,0E0,0E0,0E0,0E0,0E0,0E0,0E0,0E0,0E0,0E0,0E0,0E0,0E0,0E0,0E0,0E0,0E0,0E0,0E0,0E0,0E0,0E0,0E0,0E0,0E0,0E0,0E0,0E0,0E0,0E0,0E0,0E0,0E0,0E0,0E0,0E0,0E0,0E0,0E0,0E0,0E0,0E0,0E0,0E0,0E0,0E0,0E0,0E0,0E0,0E0,0E0,0E0,0E0,0E0,0E0,0E0,0E0,0E0,0E0,0E0,0E0,0E0,0E0],"parents":[2147483647,0,0,1,1,2,2,3,3,4,4,5,5,6,6,7,7,8,8,9,9,10,10,11,11,12,12,13,13,14,14,15,15,16,16,17,17,18,18,19,19,20,20,21,21,22,22,23,23,24,24,25,25,26,26,27,27,28,28,29,29,30,30,31,31,32,32,33,33,34,34,35,35,36,36,37,37,38,38,39,39,40,40,41,41,42,42,43,43,44,44,45,45,46,46,47,47,48,48,49,49,50,50,51,51,52,52,53,53,54,54,55,55,56,56,57,57,58,58,59,59,60,60,61,61,62,62],"right_children":[2,4,6,8,10,12,14,16,18,20,22,24,26,28,30,32,34,36,38,40,42,44,46,48,50,52,54,56,58,60,62,64,66,68,70,72,74,76,78,80,82,84,86,88,90,92,94,96,98,100,102,104,106,108,110,112,114,116,118,120,122,124,126,-1,-1,-1,-1,-1,-1,-1,-1,-1,-1,-1,-1,-1,-1,-1,-1,-1,-1,-1,-1,-1,-1,-1,-1,-1,-1,-1,-1,-1,-1,-1,-1,-1,-1,-1,-1,-1,-1,-1,-1,-1,-1,-1,-1,-1,-1,-1,-1,-1,-1,-1,-1,-1,-1,-1,-1,-1,-1,-1,-1,-1,-1,-1,-1],"split_conditions":[6.211734E-1,4.7330996E-1,8.2938075E-2,8.476113E-2,6.398381E-1,3.1085774E-2,7.441231E-1,1.735968E-1,2.5748783E-1,7.182397E-2,7.44637E-2,1.7824227E-1,1.7604786E-1,7.323332E-2,6.558688E-2,2.5003207E-1,1.3302125E-3,1.5645778E-1,2.0473744E-1,2.8575195E-2,5.1934886E-1,3.7656665E-1,4.7969297E-2,1.4197673E-1,6.51694E-1,2.9024864E-2,3.751282E-1,3.9410973E-1,1.0092968E0,2.950305E-1,1.0826357E-1,1.2481798E-1,1.5735543E-1,1.5277283E-1,4.8169434E-1,3.422974E-2,4.1624606E-1,9.612399E-2,3.4336292E-4,1.6147365E-1,7.199085E-2,1.7725839E-1,4.7217685E-1,1.0405104E-1,3.812419E-2,1.7680008E-2,1.794371E-2,1.3724498E-1,3.410732E-1,4.096764E-2,1.5597722E-1,2.0579621E-1,1.2384751E-1,8.378874E-3,8.0896467E-1,1.8514301E-1,1.6512731E-2,1.9309363E-1,5.0681114E-1,2.579905E-1,1.3346636E-1,2.1201432E-1,4.127538E-1,-1.0155111E-1,-3.1810906E-2,-3.3412674E-3,5.051719E-2,3.3082713E-3,5.246475E-2,5.515636E-2,9.400948E-2,1.6891824E-2,6.352816E-2,-2.1861993E-2,3.2750867E-2,5.189822E-2,9.7089596E-2,7.723184E-2,1.0492901E-1,-1.1105674E-1,-6.5112785E-2,-5.5145662E-2,3.0336162E-2,2.6748648E-2,8.888779E-2,-3.715791E-2,2.866931E-2,-1.8806571E-2,-8.1182234E-2,8.575845E-3,1.03046715E-1,3.592175E-2,1.1360303E-1,-2.2306073E-2,1.1152729E-1,-1.2748037E-1,-1.0831703E-1,-8.571608E-2,2.8325478E-2,2.0966561E-1,-5.360995E-2,-7.990223E-2,1.1680336E-1,-1.03037156E-1,-6.9049792E-3,7.693677E-2,-9.158261E-2,-6.364369E-2,-2.6599114E-4,9.145889E-2,-4.359549E-2,-7.8870654E-2,-1.6042082E-2,4.0578894E-2,-2.909926E-2,3.991248E-2,1.21016584E-1,-4.3300856E-2,9.731328E-2,-1.140212E-1,-2.132401E-2,-5.221724E-3,-8.455847E-2,-7.5083785E-2,7.866052E-2,7.120903E-2,-4.1328665E-2],"split_indices":[5,5,27,27,32,44,5,44,9,44,44,26,18,44,22,2,26,43,18,21,1,28,9,22,40,26,35,21,32,28,20,18,35,35,33,35,21,26,26,35,22,7,18,19,26,26,10,28,35,10,18,30,6,32,20,35,41,44,33,9,4,31,42,0,0,0,0,0,0,0,0,0,0,0,0,0,0,0,0,0,0,0,0,0,0,0,0,0,0,0,0,0,0,0,0,0,0,0,0,0,0,0,0,0,0,0,0,0,0,0,0,0,0,0,0,0,0,0,0,0,0,0,0,0,0,0,0],"split_type":[0,0,0,0,0,0,0,0,0,0,0,0,0,0,0,0,0,0,0,0,0,0,0,0,0,0,0,0,0,0,0,0,0,0,0,0,0,0,0,0,0,0,0,0,0,0,0,0,0,0,0,0,0,0,0,0,0,0,0,0,0,0,0,0,0,0,0,0,0,0,0,0,0,0,0,0,0,0,0,0,0,0,0,0,0,0,0,0,0,0,0,0,0,0,0,0,0,0,0,0,0,0,0,0,0,0,0,0,0,0,0,0,0,0,0,0,0,0,0,0,0,0,0,0,0,0,0],"sum_hessian":[5.2160184E4,2.4522832E4,2.7637352E4,1.437073E4,1.0152101E4,2.3054502E4,4.5828516E3,5.5777427E3,8.792987E3,4.649064E3,5.503037E3,2.2283184E4,7.7131714E2,2.5368857E3,2.0459656E3,3.7239336E3,1.8538092E3,5.7991323E3,2.9938555E3,3.4601636E3,1.1889003E3,4.602087E3,9.009501E2,2.2252926E4,3.0258718E1,3.7189343E2,3.994237E2,2.3436975E3,1.9318839E2,1.8686575E3,1.7730815E2,2.2902732E3,1.4336603E3,9.44724E2,9.090852E2,4.3513945E3,1.4477377E3,1.2118967E3,1.7819587E3,2.609795E3,8.503687E2,2.5085886E2,9.380414E2,2.6070771E3,1.9950099E3,7.1895276E2,1.8199734E2,2.168804E4,5.6488544E2,1.8732542E1,1.1526176E1,3.6252222E2,9.371203E0,3.6914478E2,3.0278934E1,1.6073264E3,7.36371E2,1.1267901E2,8.050937E1,1.5550239E3,3.1363354E2,1.1981177E2,5.749639E1,4.617519E2,1.8285214E3,7.169741E2,7.1668616E2,4.7139868E2,4.733253E2,4.87438E2,4.2164722E2,8.0940216E2,3.5419922E3,6.4372986E2,8.040078E2,7.7540594E2,4.3649072E2,4.169468E2,1.365012E3,1.9489615E3,6.6083325E2,6.963129E2,1.540558E2,1.5663428E2,9.422457E1,7.6490186E2,1.731395E2,2.091438E3,5.1563916E2,1.8084213E3,1.8658861E2,6.2663855E2,9.231422E1,3.3711886E0,1.7862616E2,1.9048297E4,2.6397432E3,5.1069446E2,5.4190964E1,1.717536E1,1.5571823E0,7.111332E0,4.414845E0,3.4425412E2,1.8268124E1,7.818327E0,1.5528762E0,2.561951E2,1.129497E2,2.6087854E1,4.1910796E0,1.3486865E3,2.5863998E2,1.2547555E2,6.1089545E2,7.864692E1,3.4032085E1,6.675194E1,1.3757433E1,1.5143198E3,4.0704105E1,6.278204E1,2.508515E2,1.1003665E2,9.775115E0,3.0921436E1,2.6574957E1],"tree_param":{"num_deleted":"0","num_feature":"46","num_nodes":"127","size_leaf_vector":"0"}},{"base_weights":[-5.188514E-1,8.807685E-2,-1.0832056E0,-3.3944687E-1,3.052296E-1,-1.1752663E0,-6.614817E-1,-5.609301E-1,1.6597947E-1,4.9583307E-1,-3.2511093E-2,-1.2019113E0,-5.417595E-1,-4.508209E-1,-9.184694E-1,-8.3363205E-1,-1.3223617E-1,4.3106037E-1,-1.6741233E-1,7.7840567E-1,3.712224E-1,-2.2484064E-1,2.8605008E-1,-1.2080809E0,-3.0435856E-2,4.8207116E-1,-6.507953E-1,-2.6780748E-1,-7.371713E-1,-9.511295E-1,-8.0296084E-2,-1.0316571E0,-5.6511897E-1,-2.4506079E-1,4.674762E-1,7.633738E-1,2.4949534E-1,-2.976398E-1,4.691503E-1,6.925001E-1,1.0275756E0,1.905291E-1,5.901472E-1,-4.2968923E-1,5.125041E-2,2.2662407E-1,1.07773E0,-1.1046989E0,-1.2535317E0,-2.634954E-1,7.5196326E-1,-1.204404E-3,1.0775136E0,-8.433607E-1,-2.3342788E-1,-3.0890056E-1,1.0625336E0,-7.6231885E-1,9.366962E-1,-7.845766E-1,-1.1038767E0,-4.238692E-1,1.0094337E0,-1.0565436E0,3.4660604E-2,-7.2454E-1,-1.3886024E-1,-3.3665818E-1,3.6634824E-1,2.136269E-1,8.712172E-1,5.77005E-1,9.931424E-1,3.9927058E-2,6.167901E-1,-4.756956E-1,1.9173898E-1,6.2840706E-1,-1.9477217E-1,9.0120894E-1,5.7592714E-1,1.0703713E0,6.4345276E-1,6.4439076E-1,9.3824826E-2,6.729038E-1,5.049587E-2,-1.9986857E-1,-7.217893E-1,-2.9885106E-2,8.173164E-1,2.9768687E-1,-4.659308E-1,8.116246E-1,1.3296078E0,-1.1461563E0,-7.765836E-1,-1.2542078E0,1.2074895E-1,1.202837E0,-4.5231298E-1,1.091483E0,-3.8197497E-1,-9.134025E-1,3.1334463E-1,1.2558174E0,6.702644E-2,-8.8475215E-1,6.139863E-1,-4.4677234E-1,4.035383E-1,4.0572697E-1,-3.7622955E-1,-1.510806E-1,1.2897083E0,-8.793799E-1,-4.269544E-1,1.31394E0,-5.3528696E-1,-8.3008903E-1,2.1602006E-1,-1.1193297E0,-3.821622E-2,5.898588E-1,-7.053798E-1,-7.287124E-1,1.3464727E0],"categories":[],"categories_nodes":[],"categories_segments":[],"categories_sizes":[],"default_left":[0,1,1,1,0,1,1,1,0,0,1,1,0,1,1,1,1,1,1,1,1,1,1,1,1,1,1,1,1,1,1,1,1,1,1,1,1,0,0,1,1,0,1,1,1,1,0,1,1,0,1,1,1,1,1,1,0,1,1,1,1,1,1,0,0,0,0,0,0,0,0,0,0,0,0,0,0,0,0,0,0,0,0,0,0,0,0,0,0,0,0,0,0,0,0,0,0,0,0,0,0,0,0,0,0,0,0,0,0,0,0,0,0,0,0,0,0,0,0,0,0,0,0,0,0,0,0],"id":8,"left_children":[1,3,5,7,9,11,13,15,17,19,21,23,25,27,29,31,33,35,37,39,41,43,45,47,49,51,53,55,57,59,61,63,65,67,69,71,73,75,77,79,81,83,85,87,89,91,93,95,97,99,101,103,105,107,109,111,113,115,117,119,121,123,125,-1,-1,-1,-1,-1,-1,-1,-1,-1,-1,-1,-1,-1,-1,-1,-1,-1,-1,-1,-1,-1,-1,-1,-1,-1,-1,-1,-1,-1,-1,-1,-1,-1,-1,-1,-1,-1,-1,-1,-1,-1,-1,-1,-1,-1,-1,-1,-1,-1,-1,-1,-1,-1,-1,-1,-1,-1,-1,-1,-1,-1,-1,-1,-1],"loss_changes":[1.7280246E4,2.2568914E3,1.01415625E3,9.16762E2,1.037812E3,3.6152734E2,2.5329541E2,6.655371E2,2.206398E2,3.625818E2,3.5645016E2,1.4877344E2,9.719466E1,1.3486829E2,5.7687744E1,1.844524E2,1.499842E2,8.3714294E1,9.1839584E1,6.677588E1,2.8287042E2,2.051849E2,1.02797455E2,9.4853516E1,2.0054247E1,2.420282E1,6.287314E1,8.637168E1,4.2991394E1,5.080066E1,3.046642E1,5.3153564E1,1.00423645E2,1.0456414E2,3.5794434E1,2.0445953E1,6.9310135E1,8.016321E1,2.002744E1,5.6598145E1,1.2565186E1,1.720097E2,1.4440076E2,1.3965924E2,9.611573E1,1.0046607E2,9.153E0,8.430615E1,1.3365234E1,2.3978586E1,1.0138656E1,1.3893225E1,6.7047234E0,3.2912018E1,3.4036392E1,7.365079E1,1.3259258E1,3.8492004E1,9.207438E0,4.45802E1,1.7361694E1,1.8024618E1,1.2420923E1,0E0,0E0,0E0,0E0,0E0,0E0,0E0,0E0,0E0,0E0,0E0,0E0,0E0,0E0,0E0,0E0,0E0,0E0,0E0,0E0,0E0,0E0,0E0,0E0,0E0,0E0,0E0,0E0,0E0,0E0,0E0,0E0,0E0,0E0,0E0,0E0,0E0,0E0,0E0,0E0,0E0,0E0,0E0,0E0,0E0,0E0,0E0,0E0,0E0,0E0,0E0,0E0,0E0,0E0,0E0,0E0,0E0,0E0,0E0,0E0,0E0,0E0,0E0,0E0],"parents":[2147483647,0,0,1,1,2,2,3,3,4,4,5,5,6,6,7,7,8,8,9,9,10,10,11,11,12,12,13,13,14,14,15,15,16,16,17,17,18,18,19,19,20,20,21,21,22,22,23,23,24,24,25,25,26,26,27,27,28,28,29,29,30,30,31,31,32,32,33,33,34,34,35,35,36,36,37,37,38,38,39,39,40,40,41,41,42,42,43,43,44,44,45,45,46,46,47,47,48,48,49,49,50,50,51,51,52,52,53,53,54,54,55,55,56,56,57,57,58,58,59,59,60,60,61,61,62,62],"right_children":[2,4,6,8,10,12,14,16,18,20,22,24,26,28,30,32,34,36,38,40,42,44,46,48,50,52,54,56,58,60,62,64,66,68,70,72,74,76,78,80,82,84,86,88,90,92,94,96,98,100,102,104,106,108,110,112,114,116,118,120,122,124,126,-1,-1,-1,-1,-1,-1,-1,-1,-1,-1,-1,-1,-1,-1,-1,-1,-1,-1,-1,-1,-1,-1,-1,-1,-1,-1,-1,-1,-1,-1,-1,-1,-1,-1,-1,-1,-1,-1,-1,-1,-1,-1,-1,-1,-1,-1,-1,-1,-1,-1,-1,-1,-1,-1,-1,-1,-1,-1,-1,-1,-1,-1,-1,-1],"split_conditions":[6.216011E-1,1.2500827E-1,4.5938134E-2,7.4795954E-2,4.6092898E-1,2.9351527E-2,7.3916316E-1,6.843923E-2,1.009948E0,2.7038994E-1,2.1689744E-1,5.004041E-1,4.4111773E-1,8.639234E-2,3.7437186E-1,1.6946808E-1,2.5202435E-1,5.197081E-1,5.1347995E-1,5.125509E-1,5.050321E-1,2.757805E-1,6.759992E-2,7.884001E-1,2.7590357E-3,1.6837064E-3,2.7788734E-1,6.469257E-2,1.2735312E-1,6.433484E-2,1.4043087E-1,1.9863524E-1,1.6013967E-1,5.0175756E-2,1.3612679E-1,4.7480267E-1,1.0958744E-1,3.254414E-1,1.1222248E-1,1.9525465E-2,4.2601816E-2,1.6994717E-2,1.3927604E-1,1.357074E-1,3.4542665E-2,1.3022073E-1,1.5394068E-1,6.9711876E-1,2.2941962E-1,5.085703E-2,1.1747701E-1,7.172659E-3,9.015757E-3,5.6005704E-1,8.7423575E-1,2.8114662E-2,1.360687E-1,1.3331106E-1,1.075335E-1,2.564879E-1,5.0089575E-2,3.5713129E-3,7.450323E-2,-1.0565436E-1,3.4660604E-3,-7.2454E-2,-1.3886024E-2,-3.3665817E-2,3.6634825E-2,2.136269E-2,8.712172E-2,5.7700504E-2,9.931424E-2,3.992706E-3,6.1679013E-2,-4.756956E-2,1.9173898E-2,6.284071E-2,-1.9477217E-2,9.01209E-2,5.7592716E-2,1.0703713E-1,6.434528E-2,6.443908E-2,9.382483E-3,6.729038E-2,5.049587E-3,-1.9986859E-2,-7.217893E-2,-2.9885105E-3,8.173164E-2,2.9768689E-2,-4.659308E-2,8.116246E-2,1.3296078E-1,-1.14615634E-1,-7.765836E-2,-1.254208E-1,1.2074895E-2,1.202837E-1,-4.5231298E-2,1.091483E-1,-3.81975E-2,-9.134025E-2,3.1334464E-2,1.2558174E-1,6.702644E-3,-8.847522E-2,6.1398633E-2,-4.4677235E-2,4.035383E-2,4.05727E-2,-3.7622955E-2,-1.5108059E-2,1.2897083E-1,-8.7937996E-2,-4.269544E-2,1.3139401E-1,-5.3528696E-2,-8.300891E-2,2.1602007E-2,-1.1193297E-1,-3.8216219E-3,5.8985878E-2,-7.053798E-2,-7.287124E-2,1.3464728E-1],"split_indices":[5,2,21,44,5,44,5,21,32,5,18,29,1,6,31,18,9,1,33,9,33,21,26,5,26,32,18,26,26,19,36,22,35,22,31,33,27,44,12,39,34,39,6,43,26,19,26,32,26,0,19,37,31,35,32,39,18,35,15,9,26,16,28,0,0,0,0,0,0,0,0,0,0,0,0,0,0,0,0,0,0,0,0,0,0,0,0,0,0,0,0,0,0,0,0,0,0,0,0,0,0,0,0,0,0,0,0,0,0,0,0,0,0,0,0,0,0,0,0,0,0,0,0,0,0,0,0],"split_type":[0,0,0,0,0,0,0,0,0,0,0,0,0,0,0,0,0,0,0,0,0,0,0,0,0,0,0,0,0,0,0,0,0,0,0,0,0,0,0,0,0,0,0,0,0,0,0,0,0,0,0,0,0,0,0,0,0,0,0,0,0,0,0,0,0,0,0,0,0,0,0,0,0,0,0,0,0,0,0,0,0,0,0,0,0,0,0,0,0,0,0,0,0,0,0,0,0,0,0,0,0,0,0,0,0,0,0,0,0,0,0,0,0,0,0,0,0,0,0,0,0,0,0,0,0,0,0],"sum_hessian":[5.0448684E4,2.4307889E4,2.6140793E4,8.187677E3,1.6120212E4,2.145538E4,4.6854126E3,5.6928843E3,2.4947922E3,1.0304445E4,5.815766E3,2.058854E4,8.6684265E2,2.5762966E3,2.1091157E3,3.4789197E3,2.2139646E3,1.3896133E3,1.105179E3,3.151873E3,7.1525728E3,3.6265503E3,2.1892156E3,2.0480646E4,1.0789274E2,8.310233E1,7.8374036E2,1.5729329E3,1.0033639E3,2.0298849E3,7.923077E1,2.0006349E3,1.4782849E3,1.8638986E3,3.5006613E2,4.8985004E2,8.997633E2,9.179234E2,1.8725557E2,2.346616E3,8.0525696E2,3.9194548E3,3.233118E3,2.0815596E3,1.5449908E3,2.0375565E3,1.516592E2,6.2621396E3,1.4218507E4,8.364111E1,2.4251629E1,4.64226E1,3.6679733E1,5.356027E2,2.4813762E2,1.526547E3,4.6385902E1,9.890494E2,1.4314522E1,9.739946E2,1.0558903E3,6.0703144E1,1.8527626E1,1.9550165E3,4.5618477E1,1.0753889E3,4.0289594E2,1.6214349E3,2.4246367E2,2.158691E2,1.3419705E2,2.724075E2,2.1744255E2,5.7359467E2,3.261686E2,6.7306354E2,2.4485985E2,1.5107123E2,3.6184345E1,8.38557E2,1.5080591E3,7.229281E2,8.2328865E1,6.8743866E2,3.232016E3,2.8030222E3,4.3009576E2,1.1659159E3,9.1564374E2,1.3978978E3,1.4709303E2,1.848457E3,1.8909938E2,7.5799934E1,7.585926E1,5.5574595E3,7.0468024E2,1.4211602E4,6.9050765E0,8.929036E0,7.4712074E1,1.8692291E1,5.5593386E0,1.14150095E1,3.500759E1,3.097186E1,5.7078705E0,5.2119275E2,1.4409982E1,1.8610313E2,6.2034492E1,1.3100787E2,1.3955391E3,7.366654E0,3.901925E1,7.319392E2,2.5711017E2,1.1479812E1,2.8347104E0,9.317826E2,4.2212025E1,1.0407482E3,1.5142063E1,1.295532E1,4.7747826E1,2.8204029E0,1.5707224E1],"tree_param":{"num_deleted":"0","num_feature":"46","num_nodes":"127","size_leaf_vector":"0"}},{"base_weights":[-4.8723423E-1,5.76079E-2,-1.0535909E0,-4.310559E-1,2.2876053E-1,-1.1434066E0,-6.440808E-1,-6.724382E-1,5.401591E-2,3.9047128E-1,-1.1458571E-1,-1.1685901E0,-4.9434596E-1,-4.594133E-1,-9.060126E-1,-8.980358E-1,-2.0321901E-1,-2.694729E-1,3.325841E-1,5.6072086E-1,1.6952515E-1,-3.1422788E-1,1.6093092E-1,-1.1922716E0,-9.113525E-1,6.6954815E-1,-6.029959E-1,-6.7089534E-1,-2.3372498E-1,-9.543861E-1,-3.6688814E-1,-1.2041637E-1,-9.6809196E-1,2.3418523E-1,-3.6262274E-1,-4.9277636E-1,1.5681002E-1,1.3550255E-1,6.97839E-1,7.328736E-1,3.8430765E-1,5.49525E-1,-1.8971802E-3,-4.7736135E-1,2.8240418E-2,-5.848822E-3,4.6434164E-1,-1.2000729E0,-8.400097E-1,-9.4764537E-1,9.6882904E-1,-3.502903E-2,1.042842E0,-7.488542E-1,1.6418466E-2,-7.976852E-1,-3.4712684E-1,-3.1479087E-1,5.426963E-1,-9.776216E-1,3.0864883E-2,5.057438E-1,-5.6189716E-1,7.494327E-1,-3.3015773E-1,-1.0270206E0,-4.7387388E-1,-5.953043E-2,5.156802E-1,-5.191584E-1,1.7518087E-1,-2.553418E-1,-8.7642884E-1,7.3133075E-1,-1.7149398E-2,-5.2078806E-2,6.6448516E-1,5.638429E-1,1.1396408E0,6.4762574E-1,1.0209404E0,2.892006E-1,7.0514303E-1,7.3409504E-1,3.4023023E-1,-1.668264E-1,3.1883633E-1,1.7440995E-2,-5.8002514E-1,-5.6050234E-2,9.101686E-1,-1.0201417E-1,5.6482697E-1,8.2272905E-1,2.8959975E-1,-1.1357304E0,-1.2272459E0,-6.080083E-1,-1.13644E0,-9.804009E-1,2.844926E-1,1.8851331E-1,1.9453439E0,-5.4978156E-1,8.636625E-1,1.1426235E0,-9.28559E-1,-6.286097E-3,-8.3665407E-1,-4.026451E-1,5.1623726E-1,-8.3579785E-1,3.095304E-1,-1.266844E-1,-7.8268945E-1,-4.2439452E-1,1.3420886E-1,7.7875286E-1,2.5307989E-2,-1.0222805E0,-5.380659E-1,-3.5217533E-1,6.606819E-1,-3.4499362E-1,1.1045824E0,1.2154411E0,-6.4703894E-1],"categories":[],"categories_nodes":[],"categories_segments":[],"categories_sizes":[],"default_left":[0,1,1,1,0,1,1,1,1,1,1,1,0,1,1,0,1,1,1,0,1,1,1,1,1,1,1,1,1,1,0,0,1,0,1,1,0,1,1,1,1,0,1,0,1,1,0,1,0,1,0,1,1,0,1,1,1,1,1,1,1,1,1,0,0,0,0,0,0,0,0,0,0,0,0,0,0,0,0,0,0,0,0,0,0,0,0,0,0,0,0,0,0,0,0,0,0,0,0,0,0,0,0,0,0,0,0,0,0,0,0,0,0,0,0,0,0,0,0,0,0,0,0,0,0,0,0],"id":9,"left_children":[1,3,5,7,9,11,13,15,17,19,21,23,25,27,29,31,33,35,37,39,41,43,45,47,49,51,53,55,57,59,61,63,65,67,69,71,73,75,77,79,81,83,85,87,89,91,93,95,97,99,101,103,105,107,109,111,113,115,117,119,121,123,125,-1,-1,-1,-1,-1,-1,-1,-1,-1,-1,-1,-1,-1,-1,-1,-1,-1,-1,-1,-1,-1,-1,-1,-1,-1,-1,-1,-1,-1,-1,-1,-1,-1,-1,-1,-1,-1,-1,-1,-1,-1,-1,-1,-1,-1,-1,-1,-1,-1,-1,-1,-1,-1,-1,-1,-1,-1,-1,-1,-1,-1,-1,-1,-1],"loss_changes":[1.5014467E4,2.0743245E3,8.767578E2,7.5331836E2,1.0198941E3,3.1922266E2,2.0726941E2,4.5455615E2,1.928076E2,4.6962292E2,3.2358502E2,1.13640625E2,9.303293E1,1.2013336E2,4.5924805E1,1.5790869E2,9.742673E1,9.432289E1,8.26547E1,2.1389648E2,3.5409778E2,1.9057535E2,1.2509322E2,4.6378906E1,1.0954529E2,1.6610214E1,6.058809E1,5.311139E1,7.700462E1,3.729187E1,2.542258E1,4.419368E1,7.700781E1,3.0911366E1,8.62637E1,5.8983078E1,3.4104103E1,7.4246635E1,2.3193329E1,8.6961914E1,1.0614087E2,6.502936E1,1.9826418E2,1.1737659E2,8.193371E1,8.765357E1,5.4674774E1,2.8095703E1,2.5230621E1,6.3330933E1,2.2981339E1,1.1018013E1,9.170025E0,3.5378113E1,2.7179495E1,3.966394E1,3.5211235E1,5.4482887E1,1.4119961E1,3.0665527E1,9.513558E0,1.4395529E1,1.912947E1,0E0,0E0,0E0,0E0,0E0,0E0,0E0,0E0,0E0,0E0,0E0,0E0,0E0,0E0,0E0,0E0,0E0,0E0,0E0,0E0,0E0,0E0,0E0,0E0,0E0,0E0,0E0,0E0,0E0,0E0,0E0,0E0,0E0,0E0,0E0,0E0,0E0,0E0,0E0,0E0,0E0,0E0,0E0,0E0,0E0,0E0,0E0,0E0,0E0,0E0,0E0,0E0,0E0,0E0,0E0,0E0,0E0,0E0,0E0,0E0,0E0,0E0,0E0,0E0],"parents":[2147483647,0,0,1,1,2,2,3,3,4,4,5,5,6,6,7,7,8,8,9,9,10,10,11,11,12,12,13,13,14,14,15,15,16,16,17,17,18,18,19,19,20,20,21,21,22,22,23,23,24,24,25,25,26,26,27,27,28,28,29,29,30,30,31,31,32,32,33,33,34,34,35,35,36,36,37,37,38,38,39,39,40,40,41,41,42,42,43,43,44,44,45,45,46,46,47,47,48,48,49,49,50,50,51,51,52,52,53,53,54,54,55,55,56,56,57,57,58,58,59,59,60,60,61,61,62,62],"right_children":[2,4,6,8,10,12,14,16,18,20,22,24,26,28,30,32,34,36,38,40,42,44,46,48,50,52,54,56,58,60,62,64,66,68,70,72,74,76,78,80,82,84,86,88,90,92,94,96,98,100,102,104,106,108,110,112,114,116,118,120,122,124,126,-1,-1,-1,-1,-1,-1,-1,-1,-1,-1,-1,-1,-1,-1,-1,-1,-1,-1,-1,-1,-1,-1,-1,-1,-1,-1,-1,-1,-1,-1,-1,-1,-1,-1,-1,-1,-1,-1,-1,-1,-1,-1,-1,-1,-1,-1,-1,-1,-1,-1,-1,-1,-1,-1,-1,-1,-1,-1,-1,-1,-1,-1,-1,-1],"split_conditions":[6.3484883E-1,3.7126186E-1,4.2056177E-2,4.395001E-2,4.8765934E-1,3.012653E-2,7.6002485E-1,8.944723E-2,7.3292945E-4,1.1141296E-1,1.861793E-1,6.97266E-1,4.087327E-1,1.6641065E-1,1.16415456E-1,4.5822722E-1,1.1178346E-2,4.005242E-1,3.0796257E-1,5.383487E-1,2.3998283E-2,2.9951304E-1,9.9742234E-1,1.273996E-1,5.253943E-2,8.430874E-3,8.5194755E-1,3.529343E-1,2.5690815E-1,2.7231691E-2,9.400512E-2,2.7403284E-2,3.666792E-1,1.7496078E-1,1.8107957E-1,1.4299924E-2,5.089808E-1,4.4619605E-1,2.516278E-1,1.0031581E-1,2.626351E-1,5.979031E-1,2.9220867E-1,3.2850766E-1,3.4542665E-2,2.551755E-1,5.4461014E-1,7.9532915E-1,8.248029E-1,8.215183E-1,1.8252966E-1,9.983373E-2,2.428433E-2,2.699828E-1,7.3192924E-2,4.141172E-2,1.2500916E-1,1.6522607E-1,5.164144E-1,3.5179377E-1,1.006212E0,1.3575038E-1,1.8434465E-2,7.494327E-2,-3.3015773E-2,-1.0270206E-1,-4.7387388E-2,-5.9530432E-3,5.156802E-2,-5.1915843E-2,1.7518086E-2,-2.553418E-2,-8.7642886E-2,7.3133074E-2,-1.7149398E-3,-5.207881E-3,6.644852E-2,5.638429E-2,1.1396408E-1,6.476258E-2,1.0209405E-1,2.892006E-2,7.051431E-2,7.3409505E-2,3.4023024E-2,-1.668264E-2,3.1883635E-2,1.7440995E-3,-5.8002513E-2,-5.6050234E-3,9.101686E-2,-1.0201417E-2,5.64827E-2,8.227291E-2,2.8959975E-2,-1.1357304E-1,-1.2272459E-1,-6.080083E-2,-1.13644004E-1,-9.80401E-2,2.8449262E-2,1.885133E-2,1.9453439E-1,-5.497816E-2,8.636625E-2,1.1426236E-1,-9.28559E-2,-6.2860973E-4,-8.366541E-2,-4.0264513E-2,5.1623728E-2,-8.3579786E-2,3.095304E-2,-1.266844E-2,-7.8268945E-2,-4.2439453E-2,1.3420886E-2,7.787529E-2,2.530799E-3,-1.02228045E-1,-5.380659E-2,-3.5217535E-2,6.6068195E-2,-3.4499362E-2,1.1045825E-1,1.21544115E-1,-6.47039E-2],"split_indices":[5,38,21,44,5,44,5,21,32,15,18,32,1,18,22,0,41,20,20,1,39,27,32,22,26,25,32,27,9,26,4,39,18,18,35,34,1,18,9,26,35,1,18,0,26,9,1,5,5,11,18,32,43,0,35,26,6,35,42,18,39,36,15,0,0,0,0,0,0,0,0,0,0,0,0,0,0,0,0,0,0,0,0,0,0,0,0,0,0,0,0,0,0,0,0,0,0,0,0,0,0,0,0,0,0,0,0,0,0,0,0,0,0,0,0,0,0,0,0,0,0,0,0,0,0,0,0],"split_type":[0,0,0,0,0,0,0,0,0,0,0,0,0,0,0,0,0,0,0,0,0,0,0,0,0,0,0,0,0,0,0,0,0,0,0,0,0,0,0,0,0,0,0,0,0,0,0,0,0,0,0,0,0,0,0,0,0,0,0,0,0,0,0,0,0,0,0,0,0,0,0,0,0,0,0,0,0,0,0,0,0,0,0,0,0,0,0,0,0,0,0,0,0,0,0,0,0,0,0,0,0,0,0,0,0,0,0,0,0,0,0,0,0,0,0,0,0,0,0,0,0,0,0,0,0,0,0],"sum_hessian":[4.8656242E4,2.4799607E4,2.3856633E4,6.432483E3,1.8367125E4,1.9563975E4,4.2926597E3,4.294874E3,2.1376091E3,1.2486187E4,5.880938E3,1.8832479E4,7.3149585E2,2.5192725E3,1.773387E3,2.8997693E3,1.3951046E3,9.8907416E2,1.1485349E3,7.0512915E3,5.434895E3,3.4099285E3,2.4710095E3,1.724157E4,1.5909084E3,6.2014385E1,6.6948145E2,1.299551E3,1.2197216E3,1.6266626E3,1.4672432E2,2.3987617E2,2.659893E3,3.7249854E2,1.0226061E3,6.4896515E2,3.4010904E2,7.468994E2,4.0163553E2,3.5671423E3,3.4841492E3,1.6888768E3,3.746018E3,2.3094412E3,1.1004873E3,1.5951584E3,8.7585095E2,1.686565E4,3.7591904E2,1.5612676E3,2.964091E1,2.179097E1,4.0223415E1,5.417114E2,1.2777002E2,9.327976E2,3.6675342E2,1.1049487E3,1.1477279E2,1.5891919E3,3.7470737E1,2.6508753E1,1.20215576E2,4.6102913E1,1.9377327E2,2.3755627E3,2.843305E2,1.8267818E2,1.8982037E2,7.92091E2,2.3051512E2,4.0190195E2,2.470632E2,7.830241E1,2.618066E2,5.520424E2,1.94857E2,3.0991595E2,9.171959E1,2.7550776E3,8.1206476E2,2.68895E3,7.9519934E2,8.961155E2,7.927614E2,2.4742014E3,1.2718167E3,3.9697845E2,1.9124626E3,1.00533813E3,9.514916E1,1.3658231E3,2.2933543E2,2.858591E2,5.899919E2,5.0204995E3,1.1845151E4,2.1258801E2,1.6333102E2,1.5210363E3,4.023136E1,1.7138712E1,1.2502196E1,1.4101916E1,7.689053E0,3.8685757E1,1.5376608E0,5.7391773E1,4.8431967E2,6.960525E1,5.8164776E1,9.019942E2,3.0803377E1,2.4436752E2,1.223859E2,8.881907E2,2.1675806E2,7.846723E1,3.6305553E1,1.4414182E3,1.4777365E2,2.3574251E1,1.3896486E1,1.1126226E1,1.5382526E1,4.8886795E0,1.153269E2],"tree_param":{"num_deleted":"0","num_feature":"46","num_nodes":"127","size_leaf_vector":"0"}},{"base_weights":[-4.5344612E-1,5.6633603E-2,-1.0155547E0,-3.0081847E-1,2.6631796E-1,-1.105833E0,-6.119684E-1,-5.2385E-1,1.5318239E-1,1.5035243E-1,6.7717826E-1,-1.1316099E0,-4.6961474E-1,-4.1407606E-1,-8.484603E-1,-7.895983E-1,-2.0504107E-1,2.2727177E-2,6.4188737E-1,1.8375086E-2,5.1570565E-1,9.297701E-1,4.210674E-1,-9.9660087E-1,-1.174694E0,3.329257E-1,-6.004596E-1,-4.6047744E-1,7.001735E-1,-7.141769E-1,-1.0409161E0,-9.1901547E-1,-3.6239186E-1,-6.801047E-1,-1.8520012E-2,-2.06692E-1,2.9201055E-1,8.257792E-1,3.4612218E-1,-1.3746236E-1,3.2111567E-1,3.6728796E-1,7.759003E-1,9.660507E-1,3.9314047E-1,2.3337108E-1,7.897065E-1,-1.0703232E0,-7.013499E-1,-1.1773688E0,-3.7516648E-1,-3.136667E-1,6.2245816E-1,-7.7063733E-1,-9.639003E-2,-5.178818E-1,2.778668E-1,9.668167E-1,-1.1954142E-1,-7.8471565E-1,-2.1061292E-1,-1.0703595E0,-3.1387442E-1,-9.82069E-1,-5.0296825E-1,-1.5430814E-1,-8.513444E-1,-7.708301E-1,2.9916976E-2,-2.0283018E-1,4.1320887E-1,-4.048774E-1,9.826991E-2,1.2848224E-1,5.6138206E-1,6.972067E-1,1.1546644E0,1.3585281E-1,8.8876885E-1,-3.173969E-1,1.3009392E-1,4.514358E-1,-1.08241506E-1,1.366666E-1,5.925679E-1,5.226077E-1,8.690778E-1,8.8554126E-1,1.1655072E0,8.1248564E-1,3.6268715E-2,7.938236E-1,1.0808833E-1,5.388755E-1,9.2863166E-1,-5.719212E-1,-1.0969654E0,-8.2841283E-1,-1.6054507E-1,-1.1805753E0,-5.7874864E-1,-6.0718477E-1,7.536967E-1,1.2261434E0,-4.649941E-1,9.424942E-2,9.967106E-1,-8.6018634E-1,-6.1077442E-2,-3.2111487E-1,6.169628E-1,-5.841179E-1,7.126614E-2,1.5944682E-2,8.0400467E-1,1.2289058E0,3.3397502E-1,-6.197629E-1,5.979815E-1,-8.345476E-1,-9.287223E-2,-8.2450527E-1,4.271435E-2,-1.0843775E0,3.8541904E-1,1.2544454E0,-6.771589E-1],"categories":[],"categories_nodes":[],"categories_segments":[],"categories_sizes":[],"default_left":[0,1,1,1,1,1,1,1,1,1,1,1,0,1,0,1,1,1,1,1,1,1,1,1,1,1,1,1,1,1,1,1,1,1,1,1,0,1,1,1,1,1,1,1,1,0,0,0,1,1,1,0,1,1,0,1,1,1,0,1,1,1,1,0,0,0,0,0,0,0,0,0,0,0,0,0,0,0,0,0,0,0,0,0,0,0,0,0,0,0,0,0,0,0,0,0,0,0,0,0,0,0,0,0,0,0,0,0,0,0,0,0,0,0,0,0,0,0,0,0,0,0,0,0,0,0,0],"id":10,"left_children":[1,3,5,7,9,11,13,15,17,19,21,23,25,27,29,31,33,35,37,39,41,43,45,47,49,51,53,55,57,59,61,63,65,67,69,71,73,75,77,79,81,83,85,87,89,91,93,95,97,99,101,103,105,107,109,111,113,115,117,119,121,123,125,-1,-1,-1,-1,-1,-1,-1,-1,-1,-1,-1,-1,-1,-1,-1,-1,-1,-1,-1,-1,-1,-1,-1,-1,-1,-1,-1,-1,-1,-1,-1,-1,-1,-1,-1,-1,-1,-1,-1,-1,-1,-1,-1,-1,-1,-1,-1,-1,-1,-1,-1,-1,-1,-1,-1,-1,-1,-1,-1,-1,-1,-1,-1,-1],"loss_changes":[1.3443583E4,1.842568E3,8.120488E2,9.2041266E2,7.3812366E2,2.9838867E2,1.9058252E2,5.162374E2,1.9092627E2,5.826992E2,2.2022534E2,1.0071875E2,7.4907486E1,1.1526337E2,4.786267E1,1.8343652E2,2.4563905E2,1.4616504E2,3.403311E1,4.1893433E2,1.2355829E2,3.3031616E1,1.17108765E2,9.1631836E1,2.7945312E1,1.8986551E1,5.242981E1,9.062726E1,1.9628323E1,3.881494E1,1.5960449E1,6.641138E1,7.8664734E1,5.0369385E1,1.5856987E2,7.7256134E1,4.7870644E1,1.5616974E1,2.7678219E1,2.822671E2,1.6889447E2,1.0611331E2,2.701587E1,2.476941E1,1.6486502E1,7.888354E1,1.941449E1,4.4444336E1,5.8338776E1,2.4708984E1,1.2434311E1,7.95907E0,1.3677835E1,2.9013489E1,2.514639E1,7.735309E1,2.1299814E1,1.0780548E1,8.554706E0,3.309491E1,2.1216616E1,1.5340454E1,1.8537224E1,0E0,0E0,0E0,0E0,0E0,0E0,0E0,0E0,0E0,0E0,0E0,0E0,0E0,0E0,0E0,0E0,0E0,0E0,0E0,0E0,0E0,0E0,0E0,0E0,0E0,0E0,0E0,0E0,0E0,0E0,0E0,0E0,0E0,0E0,0E0,0E0,0E0,0E0,0E0,0E0,0E0,0E0,0E0,0E0,0E0,0E0,0E0,0E0,0E0,0E0,0E0,0E0,0E0,0E0,0E0,0E0,0E0,0E0,0E0,0E0,0E0,0E0,0E0,0E0],"parents":[2147483647,0,0,1,1,2,2,3,3,4,4,5,5,6,6,7,7,8,8,9,9,10,10,11,11,12,12,13,13,14,14,15,15,16,16,17,17,18,18,19,19,20,20,21,21,22,22,23,23,24,24,25,25,26,26,27,27,28,28,29,29,30,30,31,31,32,32,33,33,34,34,35,35,36,36,37,37,38,38,39,39,40,40,41,41,42,42,43,43,44,44,45,45,46,46,47,47,48,48,49,49,50,50,51,51,52,52,53,53,54,54,55,55,56,56,57,57,58,58,59,59,60,60,61,61,62,62],"right_children":[2,4,6,8,10,12,14,16,18,20,22,24,26,28,30,32,34,36,38,40,42,44,46,48,50,52,54,56,58,60,62,64,66,68,70,72,74,76,78,80,82,84,86,88,90,92,94,96,98,100,102,104,106,108,110,112,114,116,118,120,122,124,126,-1,-1,-1,-1,-1,-1,-1,-1,-1,-1,-1,-1,-1,-1,-1,-1,-1,-1,-1,-1,-1,-1,-1,-1,-1,-1,-1,-1,-1,-1,-1,-1,-1,-1,-1,-1,-1,-1,-1,-1,-1,-1,-1,-1,-1,-1,-1,-1,-1,-1,-1,-1,-1,-1,-1,-1,-1,-1,-1,-1,-1,-1,-1,-1],"split_conditions":[6.36271E-1,6.140754E-2,4.3826364E-2,8.378456E-2,3.744988E-2,2.9351527E-2,7.469841E-1,4.883167E-1,1.6572148E-2,1.028937E-1,8.3211705E-2,7.6410043E-1,5.063108E-1,4.3915235E-2,8.522132E-1,1.8014175E-1,1.4477819E-1,1.4697796E-1,2.5726116E-1,5.211379E-1,1.5530779E-4,1.6283345E-1,4.777341E-1,1.892506E-1,5.0036764E-1,9.133288E-3,3.164928E-1,5.2337706E-1,1.1048469E-1,6.558688E-2,3.920207E-1,3.452645E-2,1.8561023E-1,9.074363E-2,2.9961977E-2,4.7359258E-1,3.0264655E-1,4.1205953E-3,5.1542735E-1,4.190246E-1,8.763248E-2,4.74809E-1,1.0199423E-1,5.2572805E-1,4.5675564E-1,1.287491E-1,1.01167455E-1,2.7652556E-1,6.020515E-1,4.4434205E-2,2.3116043E-3,3.8169462E-2,5.752801E-2,2.643091E-1,1.7394416E-1,1.4131148E-1,1.0015178E0,5.3739923E-1,1.4512809E-1,6.150236E-1,1.3591728E-1,5.767657E-2,1.4545405E-2,-9.82069E-2,-5.0296824E-2,-1.5430815E-2,-8.513444E-2,-7.7083014E-2,2.9916975E-3,-2.028302E-2,4.1320886E-2,-4.048774E-2,9.826991E-3,1.2848224E-2,5.6138206E-2,6.972067E-2,1.1546644E-1,1.3585282E-2,8.887689E-2,-3.1739693E-2,1.3009392E-2,4.5143582E-2,-1.082415E-2,1.366666E-2,5.9256792E-2,5.2260768E-2,8.690778E-2,8.855413E-2,1.1655072E-1,8.124857E-2,3.6268716E-3,7.938236E-2,1.0808833E-2,5.3887554E-2,9.2863165E-2,-5.7192124E-2,-1.09696545E-1,-8.2841285E-2,-1.6054507E-2,-1.1805753E-1,-5.7874866E-2,-6.0718477E-2,7.536967E-2,1.2261434E-1,-4.6499413E-2,9.424943E-3,9.967106E-2,-8.601864E-2,-6.1077443E-3,-3.211149E-2,6.169628E-2,-5.841179E-2,7.126614E-3,1.5944683E-3,8.040047E-2,1.22890584E-1,3.3397503E-2,-6.197629E-2,5.979815E-2,-8.345476E-2,-9.287223E-3,-8.245053E-2,4.271435E-3,-1.08437754E-1,3.8541906E-2,1.2544455E-1,-6.771589E-2],"split_indices":[5,27,21,44,26,44,5,38,26,44,43,5,1,26,5,35,18,35,42,33,26,6,28,18,29,37,18,18,19,22,28,26,43,26,26,33,44,22,33,21,19,33,27,33,1,5,26,0,32,26,26,19,35,35,44,22,32,42,35,27,18,26,41,0,0,0,0,0,0,0,0,0,0,0,0,0,0,0,0,0,0,0,0,0,0,0,0,0,0,0,0,0,0,0,0,0,0,0,0,0,0,0,0,0,0,0,0,0,0,0,0,0,0,0,0,0,0,0,0,0,0,0,0,0,0,0,0],"split_type":[0,0,0,0,0,0,0,0,0,0,0,0,0,0,0,0,0,0,0,0,0,0,0,0,0,0,0,0,0,0,0,0,0,0,0,0,0,0,0,0,0,0,0,0,0,0,0,0,0,0,0,0,0,0,0,0,0,0,0,0,0,0,0,0,0,0,0,0,0,0,0,0,0,0,0,0,0,0,0,0,0,0,0,0,0,0,0,0,0,0,0,0,0,0,0,0,0,0,0,0,0,0,0,0,0,0,0,0,0,0,0,0,0,0,0,0,0,0,0,0,0,0,0,0,0,0,0],"sum_hessian":[4.6886266E4,2.4581201E4,2.2305064E4,9.088117E3,1.5493084E4,1.8226277E4,4.0787876E3,6.094159E3,2.993958E3,1.2083793E4,3.409291E3,1.7515834E4,7.104446E2,2.222113E3,1.8566746E3,3.3228599E3,2.7712993E3,2.3639658E3,6.2999207E2,8.87787E3,3.2059224E3,1.7151136E3,1.6941775E3,4.243239E3,1.3272595E4,9.937582E1,6.110688E2,2.133839E3,8.827402E1,1.0963925E3,7.6028204E2,2.5493982E3,7.734615E2,7.805684E2,1.990731E3,1.2765913E3,1.0873746E3,3.8735947E2,2.426326E2,5.8612856E3,3.0165847E3,2.0429913E3,1.162931E3,1.6057515E3,1.0936218E2,1.1236785E3,5.70499E2,3.393322E3,8.499168E2,1.3227867E4,4.472701E1,3.0709995E1,6.866582E1,4.5644174E2,1.5462704E2,1.9801835E3,1.5365553E2,6.647202E1,2.180199E1,9.611914E2,1.3520107E2,7.3023706E2,3.0044987E1,2.2126953E3,3.367029E2,5.4348566E2,2.2997581E2,6.9205334E2,8.851509E1,1.395504E3,5.95227E2,7.735543E2,5.0303693E2,6.7753687E2,4.0983774E2,2.8073166E2,1.0662779E2,1.7577295E2,6.685965E1,3.5043713E3,2.3569143E3,2.3141375E3,7.024473E2,1.0103216E3,1.0326698E3,3.1452856E2,8.484025E2,1.1478632E3,4.578882E2,4.9693142E1,5.966904E1,2.0431937E2,9.193591E2,2.0508838E2,3.654106E2,1.7332655E2,3.2199954E3,6.8778815E2,1.6212868E2,1.3156423E4,7.144418E1,3.7484787E1,7.2422233E0,2.1124527E0,2.8597542E1,2.8994987E1,3.9670834E1,4.0510388E2,5.133786E1,1.1800289E2,3.662415E1,1.7800648E3,2.0011865E2,1.0327396E2,5.038157E1,4.6339005E1,2.0133018E1,1.2926513E1,8.875479E0,8.964182E2,6.477325E1,3.8835537E1,9.636553E1,7.235252E2,6.7118783E0,5.1893215E0,2.4855665E1],"tree_param":{"num_deleted":"0","num_feature":"46","num_nodes":"127","size_leaf_vector":"0"}},{"base_weights":[-4.2999613E-1,4.6056576E-2,-9.771449E-1,-2.4099815E-1,2.8198826E-1,-1.0764507E0,-5.826994E-1,-5.289354E-1,2.4518494E-2,4.6943042E-1,3.9315086E-2,-1.0994604E0,-5.219016E-1,-4.150548E-1,-9.6330374E-1,-7.984839E-1,-2.6236326E-1,-1.06497675E-1,5.382506E-1,3.2607183E-1,8.2711226E-1,-1.9234075E-1,2.976983E-1,-1.1398245E0,-8.7288535E-1,-6.0028404E-1,3.6176515E-1,-6.2208843E-1,-1.3531005E-1,-1.0252819E0,-5.3942704E-1,-8.8959855E-1,-2.1267028E-1,-2.7693007E-2,-5.3143233E-1,3.6878616E-1,-2.257552E-1,6.6039205E-1,1.1295765E-1,7.026257E-2,4.8727843E-1,9.8420995E-1,6.820253E-1,-3.0705136E-1,2.7755708E-1,1.8305406E-1,7.7196825E-1,-1.0404382E0,-1.1628168E0,-9.2434573E-1,-2.6733363E-1,-6.6968954E-1,3.0153087E-1,6.120198E-1,-7.500634E-1,-6.6060585E-1,5.575952E-1,-2.1051025E-1,7.1872586E-1,-1.0396669E0,3.774749E-2,-6.775572E-1,5.6407034E-1,-9.513155E-1,-3.0623856E-1,-3.774191E-1,5.9576887E-1,-2.1815914E-1,2.610062E-1,-5.6730145E-1,9.986816E-1,7.065367E-1,2.8023547E-1,-3.6213925E-1,1.4077385E-1,5.088883E-1,8.471155E-1,-5.397388E-2,1.0026075E0,-1.5935245E-1,3.290238E-1,5.370487E-1,-3.1181594E-2,9.246019E-1,1.1738693E0,5.575529E-1,9.5632976E-1,-5.943763E-1,-1.6893479E-1,1.8129046E-1,8.842193E-1,3.193734E-1,-1.4431958E-1,3.197699E-1,8.758759E-1,-1.0612886E0,-4.347812E-1,-1.1631727E0,1.3912555E0,-9.3782276E-1,1.0229882E0,2.9194438E-1,-6.726282E-1,1.5940218E-1,-7.3459655E-1,-1.4511947E-1,1.0095879E0,-4.4661668E-1,8.642199E-1,-1.0287843E0,2.7561712E-1,-7.7215654E-1,-2.989722E-1,8.327482E-1,-4.6592999E-1,-2.551861E-1,1.0541273E0,4.5504004E-1,1.3305831E0,-1.0587969E0,-4.0204674E-1,-6.7771524E-1,1.0386745E0,-1.8371293E-1,-8.9241767E-1,1.5796924E0,2.7631143E-2],"categories":[],"categories_nodes":[],"categories_segments":[],"categories_sizes":[],"default_left":[0,1,1,1,1,1,1,1,1,1,1,1,1,0,1,1,0,0,1,1,1,1,1,1,1,1,0,1,1,1,1,1,1,1,1,0,1,0,1,0,1,1,0,0,1,1,1,1,1,1,0,0,0,1,1,1,0,1,1,1,0,1,0,0,0,0,0,0,0,0,0,0,0,0,0,0,0,0,0,0,0,0,0,0,0,0,0,0,0,0,0,0,0,0,0,0,0,0,0,0,0,0,0,0,0,0,0,0,0,0,0,0,0,0,0,0,0,0,0,0,0,0,0,0,0,0,0],"id":11,"left_children":[1,3,5,7,9,11,13,15,17,19,21,23,25,27,29,31,33,35,37,39,41,43,45,47,49,51,53,55,57,59,61,63,65,67,69,71,73,75,77,79,81,83,85,87,89,91,93,95,97,99,101,103,105,107,109,111,113,115,117,119,121,123,125,-1,-1,-1,-1,-1,-1,-1,-1,-1,-1,-1,-1,-1,-1,-1,-1,-1,-1,-1,-1,-1,-1,-1,-1,-1,-1,-1,-1,-1,-1,-1,-1,-1,-1,-1,-1,-1,-1,-1,-1,-1,-1,-1,-1,-1,-1,-1,-1,-1,-1,-1,-1,-1,-1,-1,-1,-1,-1,-1,-1,-1,-1,-1,-1],"loss_changes":[1.17671045E4,1.6362064E3,8.226875E2,8.3326416E2,6.031621E2,2.1366602E2,2.6947107E2,3.7549988E2,3.817709E2,3.8335876E2,3.4602072E2,1.464336E2,4.6680115E1,1.7007349E2,3.3404053E1,1.3855615E2,1.6607495E2,2.5626108E2,5.9797424E1,2.2028247E2,4.8104736E1,1.6438991E2,1.4844383E2,3.0048828E1,7.584485E1,3.8791214E1,1.583957E1,7.7074524E1,8.048488E1,1.7266235E1,2.5836746E1,8.068701E1,4.6999886E1,7.73727E1,6.7817505E1,2.6927399E1,1.806936E2,2.4894012E1,3.8424286E1,1.2283134E2,8.4578674E1,1.0504822E1,3.7562927E1,9.714845E1,3.480082E1,9.831838E1,2.4701508E1,3.211377E1,1.1711914E1,6.0012695E1,4.386753E1,3.0940796E1,1.4298311E1,1.2579954E1,3.3154325E0,6.573468E1,1.5572796E1,6.526448E1,1.5762802E1,1.3132568E1,1.216631E1,1.5632515E1,1.037541E1,0E0,0E0,0E0,0E0,0E0,0E0,0E0,0E0,0E0,0E0,0E0,0E0,0E0,0E0,0E0,0E0,0E0,0E0,0E0,0E0,0E0,0E0,0E0,0E0,0E0,0E0,0E0,0E0,0E0,0E0,0E0,0E0,0E0,0E0,0E0,0E0,0E0,0E0,0E0,0E0,0E0,0E0,0E0,0E0,0E0,0E0,0E0,0E0,0E0,0E0,0E0,0E0,0E0,0E0,0E0,0E0,0E0,0E0,0E0,0E0,0E0,0E0,0E0,0E0],"parents":[2147483647,0,0,1,1,2,2,3,3,4,4,5,5,6,6,7,7,8,8,9,9,10,10,11,11,12,12,13,13,14,14,15,15,16,16,17,17,18,18,19,19,20,20,21,21,22,22,23,23,24,24,25,25,26,26,27,27,28,28,29,29,30,30,31,31,32,32,33,33,34,34,35,35,36,36,37,37,38,38,39,39,40,40,41,41,42,42,43,43,44,44,45,45,46,46,47,47,48,48,49,49,50,50,51,51,52,52,53,53,54,54,55,55,56,56,57,57,58,58,59,59,60,60,61,61,62,62],"right_children":[2,4,6,8,10,12,14,16,18,20,22,24,26,28,30,32,34,36,38,40,42,44,46,48,50,52,54,56,58,60,62,64,66,68,70,72,74,76,78,80,82,84,86,88,90,92,94,96,98,100,102,104,106,108,110,112,114,116,118,120,122,124,126,-1,-1,-1,-1,-1,-1,-1,-1,-1,-1,-1,-1,-1,-1,-1,-1,-1,-1,-1,-1,-1,-1,-1,-1,-1,-1,-1,-1,-1,-1,-1,-1,-1,-1,-1,-1,-1,-1,-1,-1,-1,-1,-1,-1,-1,-1,-1,-1,-1,-1,-1,-1,-1,-1,-1,-1,-1,-1,-1,-1,-1,-1,-1,-1],"split_conditions":[6.3614875E-1,8.735719E-1,7.641453E-1,1.767729E-1,8.595822E-2,3.0125318E-2,8.158982E-1,1.3736576E-1,2.3540553E-1,1.7709363E-2,4.4998097E-1,2.5E0,4.715589E-3,1.7201555E-1,2.3752806E-1,3.0873165E-1,4.874038E-1,3.1623128E-1,1.21980734E-1,8.6960584E-2,2.1646452E-1,2.6049605E-1,6.836635E-2,7.46495E-1,1.1733641E-1,3.8833046E-1,2.6763314E-1,4.3874398E-2,5.000451E-1,4.7135867E-2,2.4139811E-3,1.8390441E-1,8.525192E-3,1.7011622E-1,1.415388E-1,1.6785083E-2,1.5108314E-1,9.759063E-1,3.7700468E-1,2.3501244E-1,9.997137E-3,5.3701127E-1,1.4565903E-1,1.5036885E-1,3.7028784E-1,6.761527E-2,1.9663814E-1,1.3066915E-1,1.6500924E0,1.1759296E-1,1.361598E-1,4.4842228E-1,1.2132311E-1,6.377573E-3,5.3589106E-1,3.723933E-1,3.0213124E-1,5.11961E-2,1.6664457E-1,5.536348E-1,1.7038263E-1,4.4989645E-1,1.4485209E-1,-9.513155E-2,-3.0623857E-2,-3.774191E-2,5.9576888E-2,-2.1815915E-2,2.610062E-2,-5.6730147E-2,9.986816E-2,7.065367E-2,2.8023547E-2,-3.6213927E-2,1.4077385E-2,5.0888833E-2,8.471155E-2,-5.3973882E-3,1.0026075E-1,-1.5935246E-2,3.2902382E-2,5.370487E-2,-3.1181595E-3,9.246019E-2,1.1738693E-1,5.5755287E-2,9.563298E-2,-5.9437633E-2,-1.689348E-2,1.8129047E-2,8.842193E-2,3.1937342E-2,-1.4431958E-2,3.197699E-2,8.758759E-2,-1.06128864E-1,-4.347812E-2,-1.1631727E-1,1.3912556E-1,-9.3782276E-2,1.0229882E-1,2.9194439E-2,-6.726282E-2,1.5940217E-2,-7.3459655E-2,-1.45119475E-2,1.0095879E-1,-4.4661667E-2,8.642199E-2,-1.0287843E-1,2.7561713E-2,-7.721566E-2,-2.9897219E-2,8.327482E-2,-4.6593E-2,-2.5518611E-2,1.0541274E-1,4.5504004E-2,1.3305831E-1,-1.0587969E-1,-4.0204674E-2,-6.7771524E-2,1.0386745E-1,-1.8371293E-2,-8.9241765E-2,1.5796924E-1,2.7631144E-3],"split_indices":[5,32,32,18,43,44,5,25,9,26,21,24,26,18,28,20,5,0,43,35,42,9,26,5,22,35,12,26,9,26,26,31,22,35,26,39,44,45,26,18,16,33,26,18,26,19,28,22,35,26,4,1,44,25,33,27,13,26,35,21,18,42,4,0,0,0,0,0,0,0,0,0,0,0,0,0,0,0,0,0,0,0,0,0,0,0,0,0,0,0,0,0,0,0,0,0,0,0,0,0,0,0,0,0,0,0,0,0,0,0,0,0,0,0,0,0,0,0,0,0,0,0,0,0,0,0,0],"split_type":[0,0,0,0,0,0,0,0,0,0,0,0,0,0,0,0,0,0,0,0,0,0,0,0,0,0,0,0,0,0,0,0,0,0,0,0,0,0,0,0,0,0,0,0,0,0,0,0,0,0,0,0,0,0,0,0,0,0,0,0,0,0,0,0,0,0,0,0,0,0,0,0,0,0,0,0,0,0,0,0,0,0,0,0,0,0,0,0,0,0,0,0,0,0,0,0,0,0,0,0,0,0,0,0,0,0,0,0,0,0,0,0,0,0,0,0,0,0,0,0,0,0,0,0,0,0,0],"sum_hessian":[4.517498E4,2.4157447E4,2.1017535E4,1.0897993E4,1.3259454E4,1.6788998E4,4.2285366E3,5.2277803E3,5.670213E3,7.4805225E3,5.778932E3,1.6119188E4,6.698096E2,2.9369778E3,1.2915591E3,2.5983862E3,2.6293943E3,4.5186284E3,1.1515848E3,5.3415464E3,2.1389758E3,3.047196E3,2.731736E3,1.367837E4,2.440818E3,6.1553174E2,5.427783E1,1.6871368E3,1.2498408E3,1.1255631E3,1.6599591E2,2.2481943E3,3.501918E2,1.4050629E3,1.2243313E3,9.059603E2,3.612668E3,8.9421826E2,2.5736655E2,2.0654468E3,3.2760996E3,1.0242029E3,1.1147731E3,2.4495603E3,5.9763574E2,2.201064E3,5.3067224E2,2.5785552E3,1.1099814E4,2.249156E3,1.9166206E2,5.717835E2,4.3748222E1,4.4672344E1,9.605485E0,1.6342186E3,5.2918285E1,1.1493877E3,1.004532E2,1.110557E3,1.5006102E1,1.4787204E2,1.8123873E1,2.0325305E3,2.1566382E2,2.9135153E2,5.8840298E1,8.4670374E2,5.5835913E2,1.1969026E3,2.7428743E1,1.8673512E2,7.192252E2,2.632964E3,9.79704E2,4.9572336E2,3.984949E2,2.1749559E2,3.9870964E1,1.0945597E3,9.708871E2,2.9891194E3,2.8698026E2,7.837524E2,2.4045045E2,7.6889886E2,3.4587424E2,7.9416E2,1.6554003E3,5.169101E2,8.072569E1,1.5539987E3,6.470651E2,9.991722E1,4.3075504E2,2.4920127E3,8.654247E1,1.10988125E4,1.0025288E0,2.2342122E3,1.4943978E1,8.065017E1,1.1101189E2,4.1407494E1,5.3037604E2,2.7313564E1,1.6434658E1,8.446479E0,3.6225864E1,7.5506315E0,2.054853E0,1.2480927E3,3.8612592E2,4.1853302E1,1.106498E1,1.1109397E3,3.8447952E1,7.1418434E1,2.9034767E1,1.0775671E3,3.29899E1,8.939242E0,6.0668592E0,4.5393284E1,1.0247875E2,5.591985E0,1.2531888E1],"tree_param":{"num_deleted":"0","num_feature":"46","num_nodes":"127","size_leaf_vector":"0"}},{"base_weights":[-3.984227E-1,4.5839958E-2,-9.3988603E-1,-3.2401988E-1,2.00678E-1,-1.034355E0,-4.987403E-1,1.4478563E-2,-5.662745E-1,7.0210695E-2,5.5838984E-1,-8.1925476E-1,-1.102906E0,-6.8878204E-1,-2.1840777E-1,1.6075055E-1,-2.8759477E-1,6.2966585E-2,-6.6688406E-1,-1.3610101E-1,2.7620426E-1,6.6191703E-1,2.9469082E-1,-9.4645625E-1,-4.9472654E-1,-1.1054069E0,2.7712095E-1,-8.021081E-1,-2.389712E-1,-3.6705366E-1,2.0254992E-1,-3.1996781E-3,4.6890995E-1,-3.7241682E-1,4.684141E-1,-5.152104E-2,8.1853294E-1,-9.057423E-1,-4.626051E-1,3.5577247E-1,-2.4287416E-1,1.1670829E-1,4.866787E-1,5.932379E-1,9.234385E-1,1.2700051E-1,6.5279984E-1,-4.4981512E-1,-9.8712265E-1,-2.0784909E-1,-6.9496495E-1,-1.1141924E0,-7.602922E-1,1.2516775E0,-4.4563305E-1,-8.641075E-1,-2.9875872E-1,-2.8414786E-1,1.4043438E0,-5.4132414E-1,-1.6432516E-2,1.0902469E0,8.561982E-2,-9.9124484E-2,4.4913173E-1,2.6000664E-1,6.8588686E-1,-4.5468432E-1,2.4629179E-1,-4.8066087E-2,8.2893336E-1,1.09615766E-1,-3.8554183E-1,1.1443985E0,4.272341E-1,-1.1335241E-1,-9.35821E-1,-5.43908E-1,8.419322E-2,5.0306064E-1,